digraph Tree {
node [shape=box, style="filled, rounded", color="black", fontname="helvetica"] ;
edge [fontname="helvetica"] ;
0 [label=<value_deal &le; 2.5<br/>gini = 0.4<br/>samples = 100.0%<br/>value = [0.28, 0.72]>, fillcolor="#84c2ef"] ;
1 [label=<internet_type &le; 2.5<br/>gini = 0.21<br/>samples = 27.2%<br/>value = [0.12, 0.88]>, fillcolor="#54aae9"] ;
0 -> 1 [labeldistance=2.5, labelangle=45, headlabel="True"] ;
2 [label=<contract &le; 0.5<br/>gini = 0.26<br/>samples = 21.7%<br/>value = [0.15, 0.85]>, fillcolor="#5caeea"] ;
1 -> 2 ;
3 [label=<payment_method &le; 0.5<br/>gini = 0.44<br/>samples = 6.3%<br/>value = [0.33, 0.67]>, fillcolor="#99cdf2"] ;
2 -> 3 ;
4 [label=<age &le; 63.5<br/>gini = 0.48<br/>samples = 4.3%<br/>value = [0.39, 0.61]>, fillcolor="#b7dbf6"] ;
3 -> 4 ;
5 [label=<total_extra_data_charges &le; 135.0<br/>gini = 0.36<br/>samples = 3.0%<br/>value = [0.24, 0.76]>, fillcolor="#77bbed"] ;
4 -> 5 ;
6 [label=<state &le; 4.5<br/>gini = 0.35<br/>samples = 3.0%<br/>value = [0.23, 0.77]>, fillcolor="#73baed"] ;
5 -> 6 ;
7 [label=<online_security &le; 0.5<br/>gini = 0.5<br/>samples = 0.5%<br/>value = [0.54, 0.46]>, fillcolor="#fbece1"] ;
6 -> 7 ;
8 [label=<total_long_distance_charges &le; 702.76<br/>gini = 0.49<br/>samples = 0.4%<br/>value = [0.44, 0.56]>, fillcolor="#d7ebfa"] ;
7 -> 8 ;
9 [label=<total_revenue &le; 1983.05<br/>gini = 0.38<br/>samples = 0.1%<br/>value = [0.75, 0.25]>, fillcolor="#eeab7b"] ;
8 -> 9 ;
10 [label=<gini = 0.0<br/>samples = 0.0%<br/>value = [0.0, 1.0]>, fillcolor="#399de5"] ;
9 -> 10 ;
11 [label=<gini = 0.0<br/>samples = 0.1%<br/>value = [1.0, 0.0]>, fillcolor="#e58139"] ;
9 -> 11 ;
12 [label=<total_charges &le; 4653.52<br/>gini = 0.46<br/>samples = 0.2%<br/>value = [0.36, 0.64]>, fillcolor="#a7d3f3"] ;
8 -> 12 ;
13 [label=<gini = 0.0<br/>samples = 0.1%<br/>value = [0.0, 1.0]>, fillcolor="#399de5"] ;
12 -> 13 ;
14 [label=<tenure_in_months &le; 17.5<br/>gini = 0.5<br/>samples = 0.1%<br/>value = [0.5, 0.5]>, fillcolor="#ffffff"] ;
12 -> 14 ;
15 [label=<gini = 0.0<br/>samples = 0.1%<br/>value = [0.0, 1.0]>, fillcolor="#399de5"] ;
14 -> 15 ;
16 [label=<gini = 0.0<br/>samples = 0.1%<br/>value = [1.0, 0.0]>, fillcolor="#e58139"] ;
14 -> 16 ;
17 [label=<tenure_in_months &le; 22.0<br/>gini = 0.28<br/>samples = 0.1%<br/>value = [0.83, 0.17]>, fillcolor="#ea9a61"] ;
7 -> 17 ;
18 [label=<gini = 0.0<br/>samples = 0.1%<br/>value = [1.0, 0.0]>, fillcolor="#e58139"] ;
17 -> 18 ;
19 [label=<gini = 0.0<br/>samples = 0.0%<br/>value = [0.0, 1.0]>, fillcolor="#399de5"] ;
17 -> 19 ;
20 [label=<total_charges &le; 2334.95<br/>gini = 0.26<br/>samples = 2.5%<br/>value = [0.16, 0.84]>, fillcolor="#5eafea"] ;
6 -> 20 ;
21 [label=<tenure_in_months &le; 23.5<br/>gini = 0.09<br/>samples = 0.6%<br/>value = [0.05, 0.95]>, fillcolor="#42a2e6"] ;
20 -> 21 ;
22 [label=<gini = 0.0<br/>samples = 0.4%<br/>value = [0.0, 1.0]>, fillcolor="#399de5"] ;
21 -> 22 ;
23 [label=<tenure_in_months &le; 25.5<br/>gini = 0.32<br/>samples = 0.1%<br/>value = [0.2, 0.8]>, fillcolor="#6ab6ec"] ;
21 -> 23 ;
24 [label=<gini = 0.0<br/>samples = 0.0%<br/>value = [1.0, 0.0]>, fillcolor="#e58139"] ;
23 -> 24 ;
25 [label=<gini = 0.0<br/>samples = 0.1%<br/>value = [0.0, 1.0]>, fillcolor="#399de5"] ;
23 -> 25 ;
26 [label=<number_of_referrals &le; 7.5<br/>gini = 0.3<br/>samples = 1.9%<br/>value = [0.18, 0.82]>, fillcolor="#66b3eb"] ;
20 -> 26 ;
27 [label=<internet_type &le; 0.5<br/>gini = 0.43<br/>samples = 1.1%<br/>value = [0.32, 0.68]>, fillcolor="#96cbf1"] ;
26 -> 27 ;
28 [label=<multiple_lines &le; 0.5<br/>gini = 0.38<br/>samples = 0.1%<br/>value = [0.75, 0.25]>, fillcolor="#eeab7b"] ;
27 -> 28 ;
29 [label=<gini = 0.0<br/>samples = 0.1%<br/>value = [1.0, 0.0]>, fillcolor="#e58139"] ;
28 -> 29 ;
30 [label=<total_revenue &le; 4386.97<br/>gini = 0.5<br/>samples = 0.1%<br/>value = [0.5, 0.5]>, fillcolor="#ffffff"] ;
28 -> 30 ;
31 [label=<gini = 0.0<br/>samples = 0.0%<br/>value = [0.0, 1.0]>, fillcolor="#399de5"] ;
30 -> 31 ;
32 [label=<gini = 0.0<br/>samples = 0.0%<br/>value = [1.0, 0.0]>, fillcolor="#e58139"] ;
30 -> 32 ;
33 [label=<internet_type &le; 1.5<br/>gini = 0.4<br/>samples = 1.0%<br/>value = [0.28, 0.72]>, fillcolor="#86c3ef"] ;
27 -> 33 ;
34 [label=<gini = 0.0<br/>samples = 0.1%<br/>value = [0.0, 1.0]>, fillcolor="#399de5"] ;
33 -> 34 ;
35 [label=<age &le; 49.5<br/>gini = 0.45<br/>samples = 0.8%<br/>value = [0.34, 0.66]>, fillcolor="#a0d0f3"] ;
33 -> 35 ;
36 [label=<total_charges &le; 3096.9<br/>gini = 0.48<br/>samples = 0.5%<br/>value = [0.59, 0.41]>, fillcolor="#f7d9c4"] ;
35 -> 36 ;
37 [label=<gini = 0.0<br/>samples = 0.1%<br/>value = [1.0, 0.0]>, fillcolor="#e58139"] ;
36 -> 37 ;
38 [label=<tenure_in_months &le; 25.5<br/>gini = 0.49<br/>samples = 0.4%<br/>value = [0.42, 0.58]>, fillcolor="#c6e3f8"] ;
36 -> 38 ;
39 [label=<monthly_charge &le; 98.62<br/>gini = 0.47<br/>samples = 0.2%<br/>value = [0.62, 0.38]>, fillcolor="#f5cdb0"] ;
38 -> 39 ;
40 [label=<gini = 0.0<br/>samples = 0.1%<br/>value = [1.0, 0.0]>, fillcolor="#e58139"] ;
39 -> 40 ;
41 [label=<total_revenue &le; 6542.31<br/>gini = 0.48<br/>samples = 0.1%<br/>value = [0.4, 0.6]>, fillcolor="#bddef6"] ;
39 -> 41 ;
42 [label=<gini = 0.0<br/>samples = 0.1%<br/>value = [0.0, 1.0]>, fillcolor="#399de5"] ;
41 -> 42 ;
43 [label=<gini = 0.0<br/>samples = 0.1%<br/>value = [1.0, 0.0]>, fillcolor="#e58139"] ;
41 -> 43 ;
44 [label=<gini = 0.0<br/>samples = 0.1%<br/>value = [0.0, 1.0]>, fillcolor="#399de5"] ;
38 -> 44 ;
45 [label=<gender &le; 0.5<br/>gini = 0.2<br/>samples = 0.4%<br/>value = [0.11, 0.89]>, fillcolor="#52a9e8"] ;
35 -> 45 ;
46 [label=<gini = 0.0<br/>samples = 0.2%<br/>value = [0.0, 1.0]>, fillcolor="#399de5"] ;
45 -> 46 ;
47 [label=<online_security &le; 0.5<br/>gini = 0.41<br/>samples = 0.2%<br/>value = [0.29, 0.71]>, fillcolor="#88c4ef"] ;
45 -> 47 ;
48 [label=<streaming_tv &le; 0.5<br/>gini = 0.48<br/>samples = 0.1%<br/>value = [0.4, 0.6]>, fillcolor="#bddef6"] ;
47 -> 48 ;
49 [label=<gini = 0.0<br/>samples = 0.1%<br/>value = [0.0, 1.0]>, fillcolor="#399de5"] ;
48 -> 49 ;
50 [label=<gini = 0.0<br/>samples = 0.0%<br/>value = [1.0, 0.0]>, fillcolor="#e58139"] ;
48 -> 50 ;
51 [label=<gini = 0.0<br/>samples = 0.1%<br/>value = [0.0, 1.0]>, fillcolor="#399de5"] ;
47 -> 51 ;
52 [label=<total_long_distance_charges &le; 92.85<br/>gini = 0.05<br/>samples = 0.8%<br/>value = [0.02, 0.98]>, fillcolor="#3ea0e6"] ;
26 -> 52 ;
53 [label=<device_protection_plan &le; 0.5<br/>gini = 0.38<br/>samples = 0.1%<br/>value = [0.25, 0.75]>, fillcolor="#7bbeee"] ;
52 -> 53 ;
54 [label=<state &le; 20.5<br/>gini = 0.5<br/>samples = 0.1%<br/>value = [0.5, 0.5]>, fillcolor="#ffffff"] ;
53 -> 54 ;
55 [label=<gini = 0.0<br/>samples = 0.0%<br/>value = [0.0, 1.0]>, fillcolor="#399de5"] ;
54 -> 55 ;
56 [label=<gini = 0.0<br/>samples = 0.0%<br/>value = [1.0, 0.0]>, fillcolor="#e58139"] ;
54 -> 56 ;
57 [label=<gini = 0.0<br/>samples = 0.0%<br/>value = [0.0, 1.0]>, fillcolor="#399de5"] ;
53 -> 57 ;
58 [label=<gini = 0.0<br/>samples = 0.7%<br/>value = [0.0, 1.0]>, fillcolor="#399de5"] ;
52 -> 58 ;
59 [label=<gini = 0.0<br/>samples = 0.0%<br/>value = [1.0, 0.0]>, fillcolor="#e58139"] ;
5 -> 59 ;
60 [label=<state &le; 6.5<br/>gini = 0.41<br/>samples = 1.3%<br/>value = [0.71, 0.29]>, fillcolor="#efb388"] ;
4 -> 60 ;
61 [label=<age &le; 71.5<br/>gini = 0.49<br/>samples = 0.4%<br/>value = [0.44, 0.56]>, fillcolor="#d7ebfa"] ;
60 -> 61 ;
62 [label=<gini = 0.0<br/>samples = 0.2%<br/>value = [1.0, 0.0]>, fillcolor="#e58139"] ;
61 -> 62 ;
63 [label=<gender &le; 0.5<br/>gini = 0.17<br/>samples = 0.2%<br/>value = [0.09, 0.91]>, fillcolor="#4da7e8"] ;
61 -> 63 ;
64 [label=<gini = 0.0<br/>samples = 0.2%<br/>value = [0.0, 1.0]>, fillcolor="#399de5"] ;
63 -> 64 ;
65 [label=<tenure_in_months &le; 18.5<br/>gini = 0.5<br/>samples = 0.1%<br/>value = [0.5, 0.5]>, fillcolor="#ffffff"] ;
63 -> 65 ;
66 [label=<gini = 0.0<br/>samples = 0.0%<br/>value = [0.0, 1.0]>, fillcolor="#399de5"] ;
65 -> 66 ;
67 [label=<gini = 0.0<br/>samples = 0.0%<br/>value = [1.0, 0.0]>, fillcolor="#e58139"] ;
65 -> 67 ;
68 [label=<married &le; 0.5<br/>gini = 0.29<br/>samples = 0.9%<br/>value = [0.82, 0.18]>, fillcolor="#eb9c64"] ;
60 -> 68 ;
69 [label=<online_security &le; 0.5<br/>gini = 0.07<br/>samples = 0.6%<br/>value = [0.97, 0.03]>, fillcolor="#e68640"] ;
68 -> 69 ;
70 [label=<gini = 0.0<br/>samples = 0.5%<br/>value = [1.0, 0.0]>, fillcolor="#e58139"] ;
69 -> 70 ;
71 [label=<streaming_movies &le; 0.5<br/>gini = 0.44<br/>samples = 0.1%<br/>value = [0.67, 0.33]>, fillcolor="#f2c09c"] ;
69 -> 71 ;
72 [label=<gini = 0.0<br/>samples = 0.0%<br/>value = [0.0, 1.0]>, fillcolor="#399de5"] ;
71 -> 72 ;
73 [label=<gini = 0.0<br/>samples = 0.0%<br/>value = [1.0, 0.0]>, fillcolor="#e58139"] ;
71 -> 73 ;
74 [label=<streaming_music &le; 0.5<br/>gini = 0.49<br/>samples = 0.3%<br/>value = [0.56, 0.44]>, fillcolor="#f9e3d3"] ;
68 -> 74 ;
75 [label=<total_long_distance_charges &le; 848.88<br/>gini = 0.4<br/>samples = 0.2%<br/>value = [0.73, 0.27]>, fillcolor="#efb083"] ;
74 -> 75 ;
76 [label=<gini = 0.0<br/>samples = 0.0%<br/>value = [0.0, 1.0]>, fillcolor="#399de5"] ;
75 -> 76 ;
77 [label=<gini = 0.0<br/>samples = 0.1%<br/>value = [1.0, 0.0]>, fillcolor="#e58139"] ;
75 -> 77 ;
78 [label=<total_charges &le; 2554.02<br/>gini = 0.32<br/>samples = 0.1%<br/>value = [0.2, 0.8]>, fillcolor="#6ab6ec"] ;
74 -> 78 ;
79 [label=<gini = 0.0<br/>samples = 0.0%<br/>value = [1.0, 0.0]>, fillcolor="#e58139"] ;
78 -> 79 ;
80 [label=<gini = 0.0<br/>samples = 0.1%<br/>value = [0.0, 1.0]>, fillcolor="#399de5"] ;
78 -> 80 ;
81 [label=<total_charges &le; 2255.8<br/>gini = 0.31<br/>samples = 2.0%<br/>value = [0.19, 0.81]>, fillcolor="#68b4eb"] ;
3 -> 81 ;
82 [label=<state &le; 17.5<br/>gini = 0.11<br/>samples = 0.8%<br/>value = [0.06, 0.94]>, fillcolor="#46a3e7"] ;
81 -> 82 ;
83 [label=<total_charges &le; 1288.2<br/>gini = 0.06<br/>samples = 0.7%<br/>value = [0.03, 0.97]>, fillcolor="#40a0e6"] ;
82 -> 83 ;
84 [label=<online_backup &le; 0.5<br/>gini = 0.32<br/>samples = 0.1%<br/>value = [0.2, 0.8]>, fillcolor="#6ab6ec"] ;
83 -> 84 ;
85 [label=<gini = 0.0<br/>samples = 0.1%<br/>value = [0.0, 1.0]>, fillcolor="#399de5"] ;
84 -> 85 ;
86 [label=<gini = 0.0<br/>samples = 0.0%<br/>value = [1.0, 0.0]>, fillcolor="#e58139"] ;
84 -> 86 ;
87 [label=<gini = 0.0<br/>samples = 0.5%<br/>value = [0.0, 1.0]>, fillcolor="#399de5"] ;
83 -> 87 ;
88 [label=<phone_service &le; 0.5<br/>gini = 0.44<br/>samples = 0.1%<br/>value = [0.33, 0.67]>, fillcolor="#9ccef2"] ;
82 -> 88 ;
89 [label=<gini = 0.0<br/>samples = 0.1%<br/>value = [0.0, 1.0]>, fillcolor="#399de5"] ;
88 -> 89 ;
90 [label=<gini = 0.0<br/>samples = 0.0%<br/>value = [1.0, 0.0]>, fillcolor="#e58139"] ;
88 -> 90 ;
91 [label=<total_long_distance_charges &le; 1528.94<br/>gini = 0.39<br/>samples = 1.2%<br/>value = [0.27, 0.73]>, fillcolor="#81c1ef"] ;
81 -> 91 ;
92 [label=<phone_service &le; 0.5<br/>gini = 0.28<br/>samples = 1.1%<br/>value = [0.17, 0.83]>, fillcolor="#61b1ea"] ;
91 -> 92 ;
93 [label=<gini = 0.0<br/>samples = 0.0%<br/>value = [1.0, 0.0]>, fillcolor="#e58139"] ;
92 -> 93 ;
94 [label=<total_charges &le; 2775.53<br/>gini = 0.23<br/>samples = 1.0%<br/>value = [0.13, 0.87]>, fillcolor="#57ace9"] ;
92 -> 94 ;
95 [label=<multiple_lines &le; 0.5<br/>gini = 0.49<br/>samples = 0.2%<br/>value = [0.57, 0.43]>, fillcolor="#f8e0ce"] ;
94 -> 95 ;
96 [label=<gini = 0.0<br/>samples = 0.1%<br/>value = [0.0, 1.0]>, fillcolor="#399de5"] ;
95 -> 96 ;
97 [label=<streaming_music &le; 0.5<br/>gini = 0.32<br/>samples = 0.1%<br/>value = [0.8, 0.2]>, fillcolor="#eca06a"] ;
95 -> 97 ;
98 [label=<gini = 0.0<br/>samples = 0.1%<br/>value = [1.0, 0.0]>, fillcolor="#e58139"] ;
97 -> 98 ;
99 [label=<gini = 0.0<br/>samples = 0.0%<br/>value = [0.0, 1.0]>, fillcolor="#399de5"] ;
97 -> 99 ;
100 [label=<streaming_movies &le; 0.5<br/>gini = 0.1<br/>samples = 0.8%<br/>value = [0.05, 0.95]>, fillcolor="#44a2e6"] ;
94 -> 100 ;
101 [label=<gini = 0.0<br/>samples = 0.5%<br/>value = [0.0, 1.0]>, fillcolor="#399de5"] ;
100 -> 101 ;
102 [label=<tenure_in_months &le; 1.5<br/>gini = 0.22<br/>samples = 0.4%<br/>value = [0.12, 0.88]>, fillcolor="#55abe9"] ;
100 -> 102 ;
103 [label=<gini = 0.0<br/>samples = 0.0%<br/>value = [1.0, 0.0]>, fillcolor="#e58139"] ;
102 -> 103 ;
104 [label=<gini = 0.0<br/>samples = 0.3%<br/>value = [0.0, 1.0]>, fillcolor="#399de5"] ;
102 -> 104 ;
105 [label=<total_revenue &le; 6278.1<br/>gini = 0.22<br/>samples = 0.1%<br/>value = [0.88, 0.12]>, fillcolor="#e99355"] ;
91 -> 105 ;
106 [label=<gini = 0.0<br/>samples = 0.1%<br/>value = [1.0, 0.0]>, fillcolor="#e58139"] ;
105 -> 106 ;
107 [label=<value_deal &le; 0.5<br/>gini = 0.5<br/>samples = 0.1%<br/>value = [0.5, 0.5]>, fillcolor="#ffffff"] ;
105 -> 107 ;
108 [label=<gini = 0.0<br/>samples = 0.0%<br/>value = [1.0, 0.0]>, fillcolor="#e58139"] ;
107 -> 108 ;
109 [label=<gini = 0.0<br/>samples = 0.0%<br/>value = [0.0, 1.0]>, fillcolor="#399de5"] ;
107 -> 109 ;
110 [label=<monthly_charge &le; 93.78<br/>gini = 0.15<br/>samples = 15.4%<br/>value = [0.08, 0.92]>, fillcolor="#4aa5e7"] ;
2 -> 110 ;
111 [label=<value_deal &le; 0.5<br/>gini = 0.06<br/>samples = 9.4%<br/>value = [0.03, 0.97]>, fillcolor="#3fa0e6"] ;
110 -> 111 ;
112 [label=<tenure_in_months &le; 7.5<br/>gini = 0.01<br/>samples = 3.3%<br/>value = [0.01, 0.99]>, fillcolor="#3a9ee5"] ;
111 -> 112 ;
113 [label=<unlimited_data &le; 0.5<br/>gini = 0.04<br/>samples = 0.9%<br/>value = [0.02, 0.98]>, fillcolor="#3d9fe6"] ;
112 -> 113 ;
114 [label=<phone_service &le; 0.5<br/>gini = 0.5<br/>samples = 0.1%<br/>value = [0.5, 0.5]>, fillcolor="#ffffff"] ;
113 -> 114 ;
115 [label=<gini = 0.0<br/>samples = 0.0%<br/>value = [0.0, 1.0]>, fillcolor="#399de5"] ;
114 -> 115 ;
116 [label=<gini = 0.0<br/>samples = 0.0%<br/>value = [1.0, 0.0]>, fillcolor="#e58139"] ;
114 -> 116 ;
117 [label=<gini = 0.0<br/>samples = 0.8%<br/>value = [0.0, 1.0]>, fillcolor="#399de5"] ;
113 -> 117 ;
118 [label=<gini = 0.0<br/>samples = 2.4%<br/>value = [0.0, 1.0]>, fillcolor="#399de5"] ;
112 -> 118 ;
119 [label=<age &le; 28.0<br/>gini = 0.08<br/>samples = 6.1%<br/>value = [0.04, 0.96]>, fillcolor="#42a1e6"] ;
111 -> 119 ;
120 [label=<total_revenue &le; 3306.2<br/>gini = 0.24<br/>samples = 1.0%<br/>value = [0.14, 0.86]>, fillcolor="#5aade9"] ;
119 -> 120 ;
121 [label=<gini = 0.0<br/>samples = 0.3%<br/>value = [0.0, 1.0]>, fillcolor="#399de5"] ;
120 -> 121 ;
122 [label=<paperless_billing &le; 0.5<br/>gini = 0.34<br/>samples = 0.7%<br/>value = [0.21, 0.79]>, fillcolor="#6fb8ec"] ;
120 -> 122 ;
123 [label=<internet_type &le; 0.5<br/>gini = 0.49<br/>samples = 0.3%<br/>value = [0.43, 0.57]>, fillcolor="#cee6f8"] ;
122 -> 123 ;
124 [label=<premium_support &le; 0.5<br/>gini = 0.32<br/>samples = 0.1%<br/>value = [0.8, 0.2]>, fillcolor="#eca06a"] ;
123 -> 124 ;
125 [label=<gini = 0.0<br/>samples = 0.0%<br/>value = [1.0, 0.0]>, fillcolor="#e58139"] ;
124 -> 125 ;
126 [label=<gini = 0.0<br/>samples = 0.0%<br/>value = [0.0, 1.0]>, fillcolor="#399de5"] ;
124 -> 126 ;
127 [label=<total_charges &le; 4845.0<br/>gini = 0.35<br/>samples = 0.2%<br/>value = [0.22, 0.78]>, fillcolor="#72b9ec"] ;
123 -> 127 ;
128 [label=<tenure_in_months &le; 6.0<br/>gini = 0.22<br/>samples = 0.2%<br/>value = [0.12, 0.88]>, fillcolor="#55abe9"] ;
127 -> 128 ;
129 [label=<gini = 0.0<br/>samples = 0.1%<br/>value = [0.0, 1.0]>, fillcolor="#399de5"] ;
128 -> 129 ;
130 [label=<total_refunds &le; 4.25<br/>gini = 0.44<br/>samples = 0.1%<br/>value = [0.33, 0.67]>, fillcolor="#9ccef2"] ;
128 -> 130 ;
131 [label=<gini = 0.0<br/>samples = 0.0%<br/>value = [1.0, 0.0]>, fillcolor="#e58139"] ;
130 -> 131 ;
132 [label=<gini = 0.0<br/>samples = 0.0%<br/>value = [0.0, 1.0]>, fillcolor="#399de5"] ;
130 -> 132 ;
133 [label=<gini = 0.0<br/>samples = 0.0%<br/>value = [1.0, 0.0]>, fillcolor="#e58139"] ;
127 -> 133 ;
134 [label=<gini = 0.0<br/>samples = 0.4%<br/>value = [0.0, 1.0]>, fillcolor="#399de5"] ;
122 -> 134 ;
135 [label=<streaming_music &le; 0.5<br/>gini = 0.05<br/>samples = 5.1%<br/>value = [0.02, 0.98]>, fillcolor="#3e9fe6"] ;
119 -> 135 ;
136 [label=<total_revenue &le; 1537.7<br/>gini = 0.01<br/>samples = 2.9%<br/>value = [0.01, 0.99]>, fillcolor="#3a9ee5"] ;
135 -> 136 ;
137 [label=<number_of_referrals &le; 12.0<br/>gini = 0.22<br/>samples = 0.2%<br/>value = [0.12, 0.88]>, fillcolor="#55abe9"] ;
136 -> 137 ;
138 [label=<gini = 0.0<br/>samples = 0.1%<br/>value = [0.0, 1.0]>, fillcolor="#399de5"] ;
137 -> 138 ;
139 [label=<gini = 0.0<br/>samples = 0.0%<br/>value = [1.0, 0.0]>, fillcolor="#e58139"] ;
137 -> 139 ;
140 [label=<gini = 0.0<br/>samples = 2.7%<br/>value = [0.0, 1.0]>, fillcolor="#399de5"] ;
136 -> 140 ;
141 [label=<total_revenue &le; 5993.79<br/>gini = 0.09<br/>samples = 2.2%<br/>value = [0.05, 0.95]>, fillcolor="#43a2e6"] ;
135 -> 141 ;
142 [label=<total_revenue &le; 2438.47<br/>gini = 0.05<br/>samples = 1.7%<br/>value = [0.02, 0.98]>, fillcolor="#3e9fe6"] ;
141 -> 142 ;
143 [label=<total_revenue &le; 2295.4<br/>gini = 0.24<br/>samples = 0.1%<br/>value = [0.14, 0.86]>, fillcolor="#5aade9"] ;
142 -> 143 ;
144 [label=<gini = 0.0<br/>samples = 0.1%<br/>value = [0.0, 1.0]>, fillcolor="#399de5"] ;
143 -> 144 ;
145 [label=<gini = 0.0<br/>samples = 0.0%<br/>value = [1.0, 0.0]>, fillcolor="#e58139"] ;
143 -> 145 ;
146 [label=<tenure_in_months &le; 22.5<br/>gini = 0.03<br/>samples = 1.6%<br/>value = [0.01, 0.99]>, fillcolor="#3c9ee5"] ;
142 -> 146 ;
147 [label=<total_revenue &le; 4736.23<br/>gini = 0.06<br/>samples = 0.7%<br/>value = [0.03, 0.97]>, fillcolor="#3fa0e6"] ;
146 -> 147 ;
148 [label=<gini = 0.0<br/>samples = 0.5%<br/>value = [0.0, 1.0]>, fillcolor="#399de5"] ;
147 -> 148 ;
149 [label=<monthly_charge &le; 81.72<br/>gini = 0.2<br/>samples = 0.2%<br/>value = [0.11, 0.89]>, fillcolor="#52a9e8"] ;
147 -> 149 ;
150 [label=<gini = 0.0<br/>samples = 0.1%<br/>value = [0.0, 1.0]>, fillcolor="#399de5"] ;
149 -> 150 ;
151 [label=<state &le; 9.0<br/>gini = 0.5<br/>samples = 0.1%<br/>value = [0.5, 0.5]>, fillcolor="#ffffff"] ;
149 -> 151 ;
152 [label=<gini = 0.0<br/>samples = 0.0%<br/>value = [1.0, 0.0]>, fillcolor="#e58139"] ;
151 -> 152 ;
153 [label=<gini = 0.0<br/>samples = 0.0%<br/>value = [0.0, 1.0]>, fillcolor="#399de5"] ;
151 -> 153 ;
154 [label=<gini = 0.0<br/>samples = 0.9%<br/>value = [0.0, 1.0]>, fillcolor="#399de5"] ;
146 -> 154 ;
155 [label=<total_charges &le; 3977.75<br/>gini = 0.26<br/>samples = 0.4%<br/>value = [0.15, 0.85]>, fillcolor="#5caeea"] ;
141 -> 155 ;
156 [label=<gini = 0.0<br/>samples = 0.0%<br/>value = [1.0, 0.0]>, fillcolor="#e58139"] ;
155 -> 156 ;
157 [label=<multiple_lines &le; 0.5<br/>gini = 0.1<br/>samples = 0.4%<br/>value = [0.06, 0.94]>, fillcolor="#45a3e7"] ;
155 -> 157 ;
158 [label=<age &le; 44.0<br/>gini = 0.24<br/>samples = 0.2%<br/>value = [0.14, 0.86]>, fillcolor="#5aade9"] ;
157 -> 158 ;
159 [label=<gini = 0.0<br/>samples = 0.1%<br/>value = [0.0, 1.0]>, fillcolor="#399de5"] ;
158 -> 159 ;
160 [label=<monthly_charge &le; 74.55<br/>gini = 0.44<br/>samples = 0.1%<br/>value = [0.33, 0.67]>, fillcolor="#9ccef2"] ;
158 -> 160 ;
161 [label=<gini = 0.0<br/>samples = 0.0%<br/>value = [0.0, 1.0]>, fillcolor="#399de5"] ;
160 -> 161 ;
162 [label=<paperless_billing &le; 0.5<br/>gini = 0.5<br/>samples = 0.1%<br/>value = [0.5, 0.5]>, fillcolor="#ffffff"] ;
160 -> 162 ;
163 [label=<gini = 0.0<br/>samples = 0.0%<br/>value = [0.0, 1.0]>, fillcolor="#399de5"] ;
162 -> 163 ;
164 [label=<gini = 0.0<br/>samples = 0.0%<br/>value = [1.0, 0.0]>, fillcolor="#e58139"] ;
162 -> 164 ;
165 [label=<gini = 0.0<br/>samples = 0.2%<br/>value = [0.0, 1.0]>, fillcolor="#399de5"] ;
157 -> 165 ;
166 [label=<total_long_distance_charges &le; 3501.13<br/>gini = 0.27<br/>samples = 6.0%<br/>value = [0.16, 0.84]>, fillcolor="#60b0ea"] ;
110 -> 166 ;
167 [label=<married &le; 0.5<br/>gini = 0.26<br/>samples = 6.0%<br/>value = [0.15, 0.85]>, fillcolor="#5dafea"] ;
166 -> 167 ;
168 [label=<age &le; 23.5<br/>gini = 0.18<br/>samples = 2.9%<br/>value = [0.1, 0.9]>, fillcolor="#4fa8e8"] ;
167 -> 168 ;
169 [label=<state &le; 18.0<br/>gini = 0.49<br/>samples = 0.2%<br/>value = [0.44, 0.56]>, fillcolor="#d7ebfa"] ;
168 -> 169 ;
170 [label=<total_charges &le; 6903.62<br/>gini = 0.49<br/>samples = 0.2%<br/>value = [0.57, 0.43]>, fillcolor="#f8e0ce"] ;
169 -> 170 ;
171 [label=<gini = 0.0<br/>samples = 0.1%<br/>value = [1.0, 0.0]>, fillcolor="#e58139"] ;
170 -> 171 ;
172 [label=<gini = 0.0<br/>samples = 0.1%<br/>value = [0.0, 1.0]>, fillcolor="#399de5"] ;
170 -> 172 ;
173 [label=<gini = 0.0<br/>samples = 0.1%<br/>value = [0.0, 1.0]>, fillcolor="#399de5"] ;
169 -> 173 ;
174 [label=<age &le; 79.5<br/>gini = 0.14<br/>samples = 2.6%<br/>value = [0.07, 0.93]>, fillcolor="#49a5e7"] ;
168 -> 174 ;
175 [label=<total_revenue &le; 3974.19<br/>gini = 0.12<br/>samples = 2.6%<br/>value = [0.06, 0.94]>, fillcolor="#47a4e7"] ;
174 -> 175 ;
176 [label=<state &le; 6.5<br/>gini = 0.48<br/>samples = 0.1%<br/>value = [0.4, 0.6]>, fillcolor="#bddef6"] ;
175 -> 176 ;
177 [label=<gini = 0.0<br/>samples = 0.0%<br/>value = [0.0, 1.0]>, fillcolor="#399de5"] ;
176 -> 177 ;
178 [label=<gini = 0.0<br/>samples = 0.1%<br/>value = [1.0, 0.0]>, fillcolor="#e58139"] ;
176 -> 178 ;
179 [label=<premium_support &le; 0.5<br/>gini = 0.09<br/>samples = 2.5%<br/>value = [0.05, 0.95]>, fillcolor="#43a2e6"] ;
175 -> 179 ;
180 [label=<state &le; 7.0<br/>gini = 0.15<br/>samples = 1.2%<br/>value = [0.08, 0.92]>, fillcolor="#4ba6e7"] ;
179 -> 180 ;
181 [label=<age &le; 48.0<br/>gini = 0.47<br/>samples = 0.2%<br/>value = [0.38, 0.62]>, fillcolor="#b0d8f5"] ;
180 -> 181 ;
182 [label=<gini = 0.0<br/>samples = 0.1%<br/>value = [1.0, 0.0]>, fillcolor="#e58139"] ;
181 -> 182 ;
183 [label=<total_revenue &le; 7452.17<br/>gini = 0.28<br/>samples = 0.2%<br/>value = [0.17, 0.83]>, fillcolor="#61b1ea"] ;
181 -> 183 ;
184 [label=<total_charges &le; 5324.6<br/>gini = 0.5<br/>samples = 0.1%<br/>value = [0.5, 0.5]>, fillcolor="#ffffff"] ;
183 -> 184 ;
185 [label=<gini = 0.0<br/>samples = 0.0%<br/>value = [0.0, 1.0]>, fillcolor="#399de5"] ;
184 -> 185 ;
186 [label=<gini = 0.0<br/>samples = 0.0%<br/>value = [1.0, 0.0]>, fillcolor="#e58139"] ;
184 -> 186 ;
187 [label=<gini = 0.0<br/>samples = 0.1%<br/>value = [0.0, 1.0]>, fillcolor="#399de5"] ;
183 -> 187 ;
188 [label=<total_charges &le; 7456.43<br/>gini = 0.05<br/>samples = 0.9%<br/>value = [0.02, 0.98]>, fillcolor="#3ea0e6"] ;
180 -> 188 ;
189 [label=<gini = 0.0<br/>samples = 0.8%<br/>value = [0.0, 1.0]>, fillcolor="#399de5"] ;
188 -> 189 ;
190 [label=<total_long_distance_charges &le; 1370.86<br/>gini = 0.44<br/>samples = 0.1%<br/>value = [0.33, 0.67]>, fillcolor="#9ccef2"] ;
188 -> 190 ;
191 [label=<gini = 0.0<br/>samples = 0.0%<br/>value = [0.0, 1.0]>, fillcolor="#399de5"] ;
190 -> 191 ;
192 [label=<age &le; 61.0<br/>gini = 0.5<br/>samples = 0.1%<br/>value = [0.5, 0.5]>, fillcolor="#ffffff"] ;
190 -> 192 ;
193 [label=<gini = 0.0<br/>samples = 0.0%<br/>value = [1.0, 0.0]>, fillcolor="#e58139"] ;
192 -> 193 ;
194 [label=<gini = 0.0<br/>samples = 0.0%<br/>value = [0.0, 1.0]>, fillcolor="#399de5"] ;
192 -> 194 ;
195 [label=<age &le; 31.5<br/>gini = 0.04<br/>samples = 1.3%<br/>value = [0.02, 0.98]>, fillcolor="#3d9fe5"] ;
179 -> 195 ;
196 [label=<total_long_distance_charges &le; 1037.14<br/>gini = 0.15<br/>samples = 0.4%<br/>value = [0.08, 0.92]>, fillcolor="#4ba6e7"] ;
195 -> 196 ;
197 [label=<device_protection_plan &le; 0.5<br/>gini = 0.5<br/>samples = 0.1%<br/>value = [0.5, 0.5]>, fillcolor="#ffffff"] ;
196 -> 197 ;
198 [label=<gini = 0.0<br/>samples = 0.0%<br/>value = [0.0, 1.0]>, fillcolor="#399de5"] ;
197 -> 198 ;
199 [label=<gini = 0.0<br/>samples = 0.0%<br/>value = [1.0, 0.0]>, fillcolor="#e58139"] ;
197 -> 199 ;
200 [label=<gini = 0.0<br/>samples = 0.3%<br/>value = [0.0, 1.0]>, fillcolor="#399de5"] ;
196 -> 200 ;
201 [label=<gini = 0.0<br/>samples = 1.0%<br/>value = [0.0, 1.0]>, fillcolor="#399de5"] ;
195 -> 201 ;
202 [label=<gini = 0.0<br/>samples = 0.0%<br/>value = [1.0, 0.0]>, fillcolor="#e58139"] ;
174 -> 202 ;
203 [label=<streaming_music &le; 0.5<br/>gini = 0.32<br/>samples = 3.1%<br/>value = [0.2, 0.8]>, fillcolor="#6ab5eb"] ;
167 -> 203 ;
204 [label=<total_revenue &le; 6926.32<br/>gini = 0.13<br/>samples = 0.9%<br/>value = [0.07, 0.93]>, fillcolor="#48a4e7"] ;
203 -> 204 ;
205 [label=<gini = 0.0<br/>samples = 0.6%<br/>value = [0.0, 1.0]>, fillcolor="#399de5"] ;
204 -> 205 ;
206 [label=<premium_support &le; 0.5<br/>gini = 0.42<br/>samples = 0.3%<br/>value = [0.3, 0.7]>, fillcolor="#8ec7f0"] ;
204 -> 206 ;
207 [label=<gini = 0.0<br/>samples = 0.0%<br/>value = [1.0, 0.0]>, fillcolor="#e58139"] ;
206 -> 207 ;
208 [label=<age &le; 45.5<br/>gini = 0.35<br/>samples = 0.2%<br/>value = [0.22, 0.78]>, fillcolor="#72b9ec"] ;
206 -> 208 ;
209 [label=<total_charges &le; 6674.95<br/>gini = 0.44<br/>samples = 0.1%<br/>value = [0.67, 0.33]>, fillcolor="#f2c09c"] ;
208 -> 209 ;
210 [label=<gini = 0.0<br/>samples = 0.0%<br/>value = [1.0, 0.0]>, fillcolor="#e58139"] ;
209 -> 210 ;
211 [label=<gini = 0.0<br/>samples = 0.0%<br/>value = [0.0, 1.0]>, fillcolor="#399de5"] ;
209 -> 211 ;
212 [label=<gini = 0.0<br/>samples = 0.2%<br/>value = [0.0, 1.0]>, fillcolor="#399de5"] ;
208 -> 212 ;
213 [label=<online_backup &le; 0.5<br/>gini = 0.38<br/>samples = 2.2%<br/>value = [0.26, 0.74]>, fillcolor="#7dbfee"] ;
203 -> 213 ;
214 [label=<state &le; 14.5<br/>gini = 0.49<br/>samples = 0.3%<br/>value = [0.56, 0.44]>, fillcolor="#f9e3d3"] ;
213 -> 214 ;
215 [label=<paperless_billing &le; 0.5<br/>gini = 0.18<br/>samples = 0.2%<br/>value = [0.9, 0.1]>, fillcolor="#e88f4f"] ;
214 -> 215 ;
216 [label=<gini = 0.0<br/>samples = 0.0%<br/>value = [0.0, 1.0]>, fillcolor="#399de5"] ;
215 -> 216 ;
217 [label=<gini = 0.0<br/>samples = 0.2%<br/>value = [1.0, 0.0]>, fillcolor="#e58139"] ;
215 -> 217 ;
218 [label=<gini = 0.0<br/>samples = 0.1%<br/>value = [0.0, 1.0]>, fillcolor="#399de5"] ;
214 -> 218 ;
219 [label=<contract &le; 1.5<br/>gini = 0.31<br/>samples = 1.8%<br/>value = [0.2, 0.8]>, fillcolor="#69b5eb"] ;
213 -> 219 ;
220 [label=<tenure_in_months &le; 27.5<br/>gini = 0.41<br/>samples = 1.0%<br/>value = [0.29, 0.71]>, fillcolor="#88c4ef"] ;
219 -> 220 ;
221 [label=<total_charges &le; 6824.07<br/>gini = 0.3<br/>samples = 0.7%<br/>value = [0.19, 0.81]>, fillcolor="#67b4eb"] ;
220 -> 221 ;
222 [label=<tenure_in_months &le; 17.5<br/>gini = 0.46<br/>samples = 0.4%<br/>value = [0.36, 0.64]>, fillcolor="#a7d3f3"] ;
221 -> 222 ;
223 [label=<streaming_tv &le; 0.5<br/>gini = 0.38<br/>samples = 0.3%<br/>value = [0.25, 0.75]>, fillcolor="#7bbeee"] ;
222 -> 223 ;
224 [label=<gini = 0.0<br/>samples = 0.0%<br/>value = [1.0, 0.0]>, fillcolor="#e58139"] ;
223 -> 224 ;
225 [label=<total_refunds &le; 21.32<br/>gini = 0.3<br/>samples = 0.3%<br/>value = [0.18, 0.82]>, fillcolor="#65b3eb"] ;
223 -> 225 ;
226 [label=<state &le; 14.5<br/>gini = 0.41<br/>samples = 0.2%<br/>value = [0.29, 0.71]>, fillcolor="#88c4ef"] ;
225 -> 226 ;
227 [label=<gini = 0.0<br/>samples = 0.1%<br/>value = [0.0, 1.0]>, fillcolor="#399de5"] ;
226 -> 227 ;
228 [label=<state &le; 18.0<br/>gini = 0.44<br/>samples = 0.1%<br/>value = [0.67, 0.33]>, fillcolor="#f2c09c"] ;
226 -> 228 ;
229 [label=<gini = 0.0<br/>samples = 0.1%<br/>value = [1.0, 0.0]>, fillcolor="#e58139"] ;
228 -> 229 ;
230 [label=<gini = 0.0<br/>samples = 0.0%<br/>value = [0.0, 1.0]>, fillcolor="#399de5"] ;
228 -> 230 ;
231 [label=<gini = 0.0<br/>samples = 0.1%<br/>value = [0.0, 1.0]>, fillcolor="#399de5"] ;
225 -> 231 ;
232 [label=<gini = 0.0<br/>samples = 0.0%<br/>value = [1.0, 0.0]>, fillcolor="#e58139"] ;
222 -> 232 ;
233 [label=<state &le; 5.5<br/>gini = 0.1<br/>samples = 0.4%<br/>value = [0.06, 0.94]>, fillcolor="#45a3e7"] ;
221 -> 233 ;
234 [label=<gini = 0.0<br/>samples = 0.0%<br/>value = [1.0, 0.0]>, fillcolor="#e58139"] ;
233 -> 234 ;
235 [label=<gini = 0.0<br/>samples = 0.4%<br/>value = [0.0, 1.0]>, fillcolor="#399de5"] ;
233 -> 235 ;
236 [label=<payment_method &le; 0.5<br/>gini = 0.48<br/>samples = 0.2%<br/>value = [0.6, 0.4]>, fillcolor="#f6d5bd"] ;
220 -> 236 ;
237 [label=<value_deal &le; 0.5<br/>gini = 0.41<br/>samples = 0.1%<br/>value = [0.71, 0.29]>, fillcolor="#efb388"] ;
236 -> 237 ;
238 [label=<gini = 0.0<br/>samples = 0.0%<br/>value = [1.0, 0.0]>, fillcolor="#e58139"] ;
237 -> 238 ;
239 [label=<gini = 0.0<br/>samples = 0.1%<br/>value = [0.0, 1.0]>, fillcolor="#399de5"] ;
237 -> 239 ;
240 [label=<online_security &le; 0.5<br/>gini = 0.44<br/>samples = 0.1%<br/>value = [0.33, 0.67]>, fillcolor="#9ccef2"] ;
236 -> 240 ;
241 [label=<gini = 0.0<br/>samples = 0.0%<br/>value = [0.0, 1.0]>, fillcolor="#399de5"] ;
240 -> 241 ;
242 [label=<tenure_in_months &le; 31.5<br/>gini = 0.5<br/>samples = 0.1%<br/>value = [0.5, 0.5]>, fillcolor="#ffffff"] ;
240 -> 242 ;
243 [label=<gini = 0.0<br/>samples = 0.0%<br/>value = [1.0, 0.0]>, fillcolor="#e58139"] ;
242 -> 243 ;
244 [label=<gini = 0.0<br/>samples = 0.0%<br/>value = [0.0, 1.0]>, fillcolor="#399de5"] ;
242 -> 244 ;
245 [label=<unlimited_data &le; 0.5<br/>gini = 0.18<br/>samples = 0.9%<br/>value = [0.1, 0.9]>, fillcolor="#4fa8e8"] ;
219 -> 245 ;
246 [label=<state &le; 10.5<br/>gini = 0.49<br/>samples = 0.2%<br/>value = [0.44, 0.56]>, fillcolor="#d7ebfa"] ;
245 -> 246 ;
247 [label=<total_revenue &le; 9091.7<br/>gini = 0.32<br/>samples = 0.1%<br/>value = [0.8, 0.2]>, fillcolor="#eca06a"] ;
246 -> 247 ;
248 [label=<gini = 0.0<br/>samples = 0.0%<br/>value = [1.0, 0.0]>, fillcolor="#e58139"] ;
247 -> 248 ;
249 [label=<gini = 0.0<br/>samples = 0.0%<br/>value = [0.0, 1.0]>, fillcolor="#399de5"] ;
247 -> 249 ;
250 [label=<gini = 0.0<br/>samples = 0.1%<br/>value = [0.0, 1.0]>, fillcolor="#399de5"] ;
246 -> 250 ;
251 [label=<gini = 0.0<br/>samples = 0.7%<br/>value = [0.0, 1.0]>, fillcolor="#399de5"] ;
245 -> 251 ;
252 [label=<state &le; 10.5<br/>gini = 0.38<br/>samples = 0.1%<br/>value = [0.75, 0.25]>, fillcolor="#eeab7b"] ;
166 -> 252 ;
253 [label=<gini = 0.0<br/>samples = 0.0%<br/>value = [1.0, 0.0]>, fillcolor="#e58139"] ;
252 -> 253 ;
254 [label=<gini = 0.0<br/>samples = 0.0%<br/>value = [0.0, 1.0]>, fillcolor="#399de5"] ;
252 -> 254 ;
255 [label=<gini = 0.0<br/>samples = 5.5%<br/>value = [0.0, 1.0]>, fillcolor="#399de5"] ;
1 -> 255 ;
256 [label=<contract &le; 0.5<br/>gini = 0.45<br/>samples = 72.8%<br/>value = [0.34, 0.66]>, fillcolor="#9dcef2"] ;
0 -> 256 [labeldistance=2.5, labelangle=-45, headlabel="False"] ;
257 [label=<total_charges &le; 99.97<br/>gini = 0.49<br/>samples = 41.1%<br/>value = [0.56, 0.44]>, fillcolor="#fae6d7"] ;
256 -> 257 ;
258 [label=<internet_type &le; 2.5<br/>gini = 0.1<br/>samples = 7.0%<br/>value = [0.95, 0.05]>, fillcolor="#e68844"] ;
257 -> 258 ;
259 [label=<gini = 0.0<br/>samples = 5.5%<br/>value = [1.0, 0.0]>, fillcolor="#e58139"] ;
258 -> 259 ;
260 [label=<value_deal &le; 4.5<br/>gini = 0.36<br/>samples = 1.5%<br/>value = [0.77, 0.23]>, fillcolor="#eda775"] ;
258 -> 260 ;
261 [label=<total_charges &le; 66.5<br/>gini = 0.19<br/>samples = 0.6%<br/>value = [0.89, 0.11]>, fillcolor="#e89051"] ;
260 -> 261 ;
262 [label=<gini = 0.0<br/>samples = 0.5%<br/>value = [1.0, 0.0]>, fillcolor="#e58139"] ;
261 -> 262 ;
263 [label=<gini = 0.0<br/>samples = 0.1%<br/>value = [0.0, 1.0]>, fillcolor="#399de5"] ;
261 -> 263 ;
264 [label=<total_revenue &le; 101.22<br/>gini = 0.43<br/>samples = 0.9%<br/>value = [0.69, 0.31]>, fillcolor="#f1ba92"] ;
260 -> 264 ;
265 [label=<monthly_charge &le; 20.23<br/>gini = 0.12<br/>samples = 0.5%<br/>value = [0.94, 0.06]>, fillcolor="#e78a47"] ;
264 -> 265 ;
266 [label=<gini = 0.0<br/>samples = 0.3%<br/>value = [1.0, 0.0]>, fillcolor="#e58139"] ;
265 -> 266 ;
267 [label=<tenure_in_months &le; 12.5<br/>gini = 0.32<br/>samples = 0.2%<br/>value = [0.8, 0.2]>, fillcolor="#eca06a"] ;
265 -> 267 ;
268 [label=<gini = 0.0<br/>samples = 0.1%<br/>value = [1.0, 0.0]>, fillcolor="#e58139"] ;
267 -> 268 ;
269 [label=<number_of_referrals &le; 4.5<br/>gini = 0.44<br/>samples = 0.1%<br/>value = [0.67, 0.33]>, fillcolor="#f2c09c"] ;
267 -> 269 ;
270 [label=<gini = 0.0<br/>samples = 0.1%<br/>value = [1.0, 0.0]>, fillcolor="#e58139"] ;
269 -> 270 ;
271 [label=<gini = 0.0<br/>samples = 0.0%<br/>value = [0.0, 1.0]>, fillcolor="#399de5"] ;
269 -> 271 ;
272 [label=<monthly_charge &le; 20.28<br/>gini = 0.24<br/>samples = 0.4%<br/>value = [0.14, 0.86]>, fillcolor="#5aade9"] ;
264 -> 272 ;
273 [label=<gini = 0.0<br/>samples = 0.3%<br/>value = [0.0, 1.0]>, fillcolor="#399de5"] ;
272 -> 273 ;
274 [label=<tenure_in_months &le; 7.0<br/>gini = 0.48<br/>samples = 0.1%<br/>value = [0.4, 0.6]>, fillcolor="#bddef6"] ;
272 -> 274 ;
275 [label=<gini = 0.0<br/>samples = 0.0%<br/>value = [1.0, 0.0]>, fillcolor="#e58139"] ;
274 -> 275 ;
276 [label=<gini = 0.0<br/>samples = 0.0%<br/>value = [0.0, 1.0]>, fillcolor="#399de5"] ;
274 -> 276 ;
277 [label=<total_revenue &le; 274.71<br/>gini = 0.5<br/>samples = 34.1%<br/>value = [0.48, 0.52]>, fillcolor="#edf6fd"] ;
257 -> 277 ;
278 [label=<streaming_movies &le; 0.5<br/>gini = 0.35<br/>samples = 3.2%<br/>value = [0.78, 0.22]>, fillcolor="#eca572"] ;
277 -> 278 ;
279 [label=<internet_type &le; 2.5<br/>gini = 0.43<br/>samples = 2.4%<br/>value = [0.69, 0.31]>, fillcolor="#f1b992"] ;
278 -> 279 ;
280 [label=<value_deal &le; 4.5<br/>gini = 0.29<br/>samples = 1.9%<br/>value = [0.82, 0.18]>, fillcolor="#eb9c63"] ;
279 -> 280 ;
281 [label=<total_charges &le; 100.3<br/>gini = 0.1<br/>samples = 0.9%<br/>value = [0.95, 0.05]>, fillcolor="#e68844"] ;
280 -> 281 ;
282 [label=<gini = 0.0<br/>samples = 0.0%<br/>value = [0.0, 1.0]>, fillcolor="#399de5"] ;
281 -> 282 ;
283 [label=<total_charges &le; 128.57<br/>gini = 0.05<br/>samples = 0.8%<br/>value = [0.97, 0.03]>, fillcolor="#e6853f"] ;
281 -> 283 ;
284 [label=<total_charges &le; 124.58<br/>gini = 0.32<br/>samples = 0.1%<br/>value = [0.8, 0.2]>, fillcolor="#eca06a"] ;
283 -> 284 ;
285 [label=<gini = 0.0<br/>samples = 0.1%<br/>value = [1.0, 0.0]>, fillcolor="#e58139"] ;
284 -> 285 ;
286 [label=<gini = 0.0<br/>samples = 0.0%<br/>value = [0.0, 1.0]>, fillcolor="#399de5"] ;
284 -> 286 ;
287 [label=<gini = 0.0<br/>samples = 0.7%<br/>value = [1.0, 0.0]>, fillcolor="#e58139"] ;
283 -> 287 ;
288 [label=<total_charges &le; 185.35<br/>gini = 0.4<br/>samples = 1.1%<br/>value = [0.72, 0.28]>, fillcolor="#efb286"] ;
280 -> 288 ;
289 [label=<age &le; 40.5<br/>gini = 0.13<br/>samples = 0.7%<br/>value = [0.93, 0.07]>, fillcolor="#e78b48"] ;
288 -> 289 ;
290 [label=<gini = 0.0<br/>samples = 0.3%<br/>value = [1.0, 0.0]>, fillcolor="#e58139"] ;
289 -> 290 ;
291 [label=<number_of_referrals &le; 1.5<br/>gini = 0.23<br/>samples = 0.4%<br/>value = [0.87, 0.13]>, fillcolor="#e99457"] ;
289 -> 291 ;
292 [label=<total_revenue &le; 156.42<br/>gini = 0.44<br/>samples = 0.1%<br/>value = [0.33, 0.67]>, fillcolor="#9ccef2"] ;
291 -> 292 ;
293 [label=<gini = 0.0<br/>samples = 0.0%<br/>value = [0.0, 1.0]>, fillcolor="#399de5"] ;
292 -> 293 ;
294 [label=<unlimited_data &le; 0.5<br/>gini = 0.5<br/>samples = 0.1%<br/>value = [0.5, 0.5]>, fillcolor="#ffffff"] ;
292 -> 294 ;
295 [label=<gini = 0.0<br/>samples = 0.0%<br/>value = [0.0, 1.0]>, fillcolor="#399de5"] ;
294 -> 295 ;
296 [label=<gini = 0.0<br/>samples = 0.0%<br/>value = [1.0, 0.0]>, fillcolor="#e58139"] ;
294 -> 296 ;
297 [label=<gini = 0.0<br/>samples = 0.3%<br/>value = [1.0, 0.0]>, fillcolor="#e58139"] ;
291 -> 297 ;
298 [label=<age &le; 56.5<br/>gini = 0.44<br/>samples = 0.4%<br/>value = [0.33, 0.67]>, fillcolor="#9ccef2"] ;
288 -> 298 ;
299 [label=<device_protection_plan &le; 0.5<br/>gini = 0.36<br/>samples = 0.4%<br/>value = [0.23, 0.77]>, fillcolor="#74baed"] ;
298 -> 299 ;
300 [label=<gender &le; 0.5<br/>gini = 0.28<br/>samples = 0.3%<br/>value = [0.17, 0.83]>, fillcolor="#61b1ea"] ;
299 -> 300 ;
301 [label=<gini = 0.0<br/>samples = 0.1%<br/>value = [0.0, 1.0]>, fillcolor="#399de5"] ;
300 -> 301 ;
302 [label=<total_revenue &le; 200.75<br/>gini = 0.44<br/>samples = 0.2%<br/>value = [0.33, 0.67]>, fillcolor="#9ccef2"] ;
300 -> 302 ;
303 [label=<gini = 0.0<br/>samples = 0.0%<br/>value = [0.0, 1.0]>, fillcolor="#399de5"] ;
302 -> 303 ;
304 [label=<married &le; 0.5<br/>gini = 0.5<br/>samples = 0.1%<br/>value = [0.5, 0.5]>, fillcolor="#ffffff"] ;
302 -> 304 ;
305 [label=<number_of_referrals &le; 6.5<br/>gini = 0.5<br/>samples = 0.1%<br/>value = [0.5, 0.5]>, fillcolor="#ffffff"] ;
304 -> 305 ;
306 [label=<gini = 0.0<br/>samples = 0.0%<br/>value = [1.0, 0.0]>, fillcolor="#e58139"] ;
305 -> 306 ;
307 [label=<gini = 0.0<br/>samples = 0.0%<br/>value = [0.0, 1.0]>, fillcolor="#399de5"] ;
305 -> 307 ;
308 [label=<age &le; 51.0<br/>gini = 0.5<br/>samples = 0.1%<br/>value = [0.5, 0.5]>, fillcolor="#ffffff"] ;
304 -> 308 ;
309 [label=<gini = 0.0<br/>samples = 0.0%<br/>value = [1.0, 0.0]>, fillcolor="#e58139"] ;
308 -> 309 ;
310 [label=<gini = 0.0<br/>samples = 0.0%<br/>value = [0.0, 1.0]>, fillcolor="#399de5"] ;
308 -> 310 ;
311 [label=<gini = 0.0<br/>samples = 0.0%<br/>value = [1.0, 0.0]>, fillcolor="#e58139"] ;
299 -> 311 ;
312 [label=<gini = 0.0<br/>samples = 0.0%<br/>value = [1.0, 0.0]>, fillcolor="#e58139"] ;
298 -> 312 ;
313 [label=<state &le; 11.5<br/>gini = 0.11<br/>samples = 0.4%<br/>value = [0.06, 0.94]>, fillcolor="#45a3e7"] ;
279 -> 313 ;
314 [label=<total_long_distance_charges &le; 71.02<br/>gini = 0.28<br/>samples = 0.1%<br/>value = [0.17, 0.83]>, fillcolor="#61b1ea"] ;
313 -> 314 ;
315 [label=<gini = 0.0<br/>samples = 0.1%<br/>value = [0.0, 1.0]>, fillcolor="#399de5"] ;
314 -> 315 ;
316 [label=<gini = 0.0<br/>samples = 0.0%<br/>value = [1.0, 0.0]>, fillcolor="#e58139"] ;
314 -> 316 ;
317 [label=<gini = 0.0<br/>samples = 0.3%<br/>value = [0.0, 1.0]>, fillcolor="#399de5"] ;
313 -> 317 ;
318 [label=<gini = 0.0<br/>samples = 0.9%<br/>value = [1.0, 0.0]>, fillcolor="#e58139"] ;
278 -> 318 ;
319 [label=<multiple_lines &le; 0.5<br/>gini = 0.49<br/>samples = 30.9%<br/>value = [0.45, 0.55]>, fillcolor="#d9ecfa"] ;
277 -> 319 ;
320 [label=<total_long_distance_charges &le; 345.77<br/>gini = 0.46<br/>samples = 17.4%<br/>value = [0.36, 0.64]>, fillcolor="#a9d4f4"] ;
319 -> 320 ;
321 [label=<monthly_charge &le; 68.6<br/>gini = 0.48<br/>samples = 11.4%<br/>value = [0.41, 0.59]>, fillcolor="#c0e0f7"] ;
320 -> 321 ;
322 [label=<number_of_referrals &le; 12.5<br/>gini = 0.36<br/>samples = 6.8%<br/>value = [0.24, 0.76]>, fillcolor="#77bced"] ;
321 -> 322 ;
323 [label=<age &le; 54.5<br/>gini = 0.4<br/>samples = 5.2%<br/>value = [0.27, 0.73]>, fillcolor="#84c2ef"] ;
322 -> 323 ;
324 [label=<streaming_movies &le; 0.5<br/>gini = 0.31<br/>samples = 3.8%<br/>value = [0.19, 0.81]>, fillcolor="#68b4eb"] ;
323 -> 324 ;
325 [label=<total_long_distance_charges &le; 300.54<br/>gini = 0.34<br/>samples = 3.0%<br/>value = [0.22, 0.78]>, fillcolor="#70b8ec"] ;
324 -> 325 ;
326 [label=<paperless_billing &le; 0.5<br/>gini = 0.27<br/>samples = 2.7%<br/>value = [0.16, 0.84]>, fillcolor="#60b0ea"] ;
325 -> 326 ;
327 [label=<online_security &le; 0.5<br/>gini = 0.1<br/>samples = 1.3%<br/>value = [0.06, 0.94]>, fillcolor="#45a3e7"] ;
326 -> 327 ;
328 [label=<number_of_referrals &le; 10.5<br/>gini = 0.08<br/>samples = 1.1%<br/>value = [0.04, 0.96]>, fillcolor="#42a2e6"] ;
327 -> 328 ;
329 [label=<gini = 0.0<br/>samples = 0.8%<br/>value = [0.0, 1.0]>, fillcolor="#399de5"] ;
328 -> 329 ;
330 [label=<age &le; 47.5<br/>gini = 0.32<br/>samples = 0.2%<br/>value = [0.2, 0.8]>, fillcolor="#6ab6ec"] ;
328 -> 330 ;
331 [label=<gini = 0.0<br/>samples = 0.1%<br/>value = [0.0, 1.0]>, fillcolor="#399de5"] ;
330 -> 331 ;
332 [label=<tenure_in_months &le; 19.5<br/>gini = 0.44<br/>samples = 0.1%<br/>value = [0.67, 0.33]>, fillcolor="#f2c09c"] ;
330 -> 332 ;
333 [label=<gini = 0.0<br/>samples = 0.1%<br/>value = [1.0, 0.0]>, fillcolor="#e58139"] ;
332 -> 333 ;
334 [label=<gini = 0.0<br/>samples = 0.0%<br/>value = [0.0, 1.0]>, fillcolor="#399de5"] ;
332 -> 334 ;
335 [label=<age &le; 35.0<br/>gini = 0.2<br/>samples = 0.2%<br/>value = [0.11, 0.89]>, fillcolor="#52a9e8"] ;
327 -> 335 ;
336 [label=<gini = 0.0<br/>samples = 0.2%<br/>value = [0.0, 1.0]>, fillcolor="#399de5"] ;
335 -> 336 ;
337 [label=<gini = 0.0<br/>samples = 0.0%<br/>value = [1.0, 0.0]>, fillcolor="#e58139"] ;
335 -> 337 ;
338 [label=<total_charges &le; 891.27<br/>gini = 0.38<br/>samples = 1.5%<br/>value = [0.26, 0.74]>, fillcolor="#7ebfee"] ;
326 -> 338 ;
339 [label=<total_long_distance_charges &le; 98.22<br/>gini = 0.44<br/>samples = 1.2%<br/>value = [0.33, 0.67]>, fillcolor="#99cdf2"] ;
338 -> 339 ;
340 [label=<internet_type &le; 0.5<br/>gini = 0.47<br/>samples = 0.7%<br/>value = [0.62, 0.38]>, fillcolor="#f5d0b5"] ;
339 -> 340 ;
341 [label=<tenure_in_months &le; 11.5<br/>gini = 0.24<br/>samples = 0.1%<br/>value = [0.86, 0.14]>, fillcolor="#e9965a"] ;
340 -> 341 ;
342 [label=<gini = 0.0<br/>samples = 0.0%<br/>value = [0.0, 1.0]>, fillcolor="#399de5"] ;
341 -> 342 ;
343 [label=<gini = 0.0<br/>samples = 0.1%<br/>value = [1.0, 0.0]>, fillcolor="#e58139"] ;
341 -> 343 ;
344 [label=<age &le; 36.5<br/>gini = 0.5<br/>samples = 0.5%<br/>value = [0.53, 0.47]>, fillcolor="#fcf2eb"] ;
340 -> 344 ;
345 [label=<total_refunds &le; 5.14<br/>gini = 0.28<br/>samples = 0.2%<br/>value = [0.17, 0.83]>, fillcolor="#61b1ea"] ;
344 -> 345 ;
346 [label=<age &le; 27.5<br/>gini = 0.38<br/>samples = 0.1%<br/>value = [0.25, 0.75]>, fillcolor="#7bbeee"] ;
345 -> 346 ;
347 [label=<gini = 0.0<br/>samples = 0.1%<br/>value = [0.0, 1.0]>, fillcolor="#399de5"] ;
346 -> 347 ;
348 [label=<total_revenue &le; 376.63<br/>gini = 0.5<br/>samples = 0.1%<br/>value = [0.5, 0.5]>, fillcolor="#ffffff"] ;
346 -> 348 ;
349 [label=<gini = 0.0<br/>samples = 0.0%<br/>value = [1.0, 0.0]>, fillcolor="#e58139"] ;
348 -> 349 ;
350 [label=<gini = 0.0<br/>samples = 0.0%<br/>value = [0.0, 1.0]>, fillcolor="#399de5"] ;
348 -> 350 ;
351 [label=<gini = 0.0<br/>samples = 0.1%<br/>value = [0.0, 1.0]>, fillcolor="#399de5"] ;
345 -> 351 ;
352 [label=<number_of_referrals &le; 6.0<br/>gini = 0.43<br/>samples = 0.3%<br/>value = [0.69, 0.31]>, fillcolor="#f1b991"] ;
344 -> 352 ;
353 [label=<total_revenue &le; 491.69<br/>gini = 0.48<br/>samples = 0.1%<br/>value = [0.4, 0.6]>, fillcolor="#bddef6"] ;
352 -> 353 ;
354 [label=<gini = 0.0<br/>samples = 0.0%<br/>value = [1.0, 0.0]>, fillcolor="#e58139"] ;
353 -> 354 ;
355 [label=<age &le; 46.0<br/>gini = 0.38<br/>samples = 0.1%<br/>value = [0.25, 0.75]>, fillcolor="#7bbeee"] ;
353 -> 355 ;
356 [label=<gini = 0.0<br/>samples = 0.1%<br/>value = [0.0, 1.0]>, fillcolor="#399de5"] ;
355 -> 356 ;
357 [label=<gini = 0.0<br/>samples = 0.0%<br/>value = [1.0, 0.0]>, fillcolor="#e58139"] ;
355 -> 357 ;
358 [label=<number_of_referrals &le; 10.5<br/>gini = 0.22<br/>samples = 0.2%<br/>value = [0.88, 0.12]>, fillcolor="#e99355"] ;
352 -> 358 ;
359 [label=<gini = 0.0<br/>samples = 0.1%<br/>value = [1.0, 0.0]>, fillcolor="#e58139"] ;
358 -> 359 ;
360 [label=<total_long_distance_charges &le; 15.4<br/>gini = 0.5<br/>samples = 0.1%<br/>value = [0.5, 0.5]>, fillcolor="#ffffff"] ;
358 -> 360 ;
361 [label=<gini = 0.0<br/>samples = 0.0%<br/>value = [0.0, 1.0]>, fillcolor="#399de5"] ;
360 -> 361 ;
362 [label=<gini = 0.0<br/>samples = 0.0%<br/>value = [1.0, 0.0]>, fillcolor="#e58139"] ;
360 -> 362 ;
363 [label=<gini = 0.0<br/>samples = 0.5%<br/>value = [0.0, 1.0]>, fillcolor="#399de5"] ;
339 -> 363 ;
364 [label=<gini = 0.0<br/>samples = 0.3%<br/>value = [0.0, 1.0]>, fillcolor="#399de5"] ;
338 -> 364 ;
365 [label=<paperless_billing &le; 0.5<br/>gini = 0.48<br/>samples = 0.3%<br/>value = [0.59, 0.41]>, fillcolor="#f7d9c4"] ;
325 -> 365 ;
366 [label=<gini = 0.0<br/>samples = 0.1%<br/>value = [0.0, 1.0]>, fillcolor="#399de5"] ;
365 -> 366 ;
367 [label=<online_security &le; 0.5<br/>gini = 0.17<br/>samples = 0.2%<br/>value = [0.91, 0.09]>, fillcolor="#e88e4d"] ;
365 -> 367 ;
368 [label=<number_of_referrals &le; 7.5<br/>gini = 0.44<br/>samples = 0.1%<br/>value = [0.67, 0.33]>, fillcolor="#f2c09c"] ;
367 -> 368 ;
369 [label=<gini = 0.0<br/>samples = 0.1%<br/>value = [1.0, 0.0]>, fillcolor="#e58139"] ;
368 -> 369 ;
370 [label=<gini = 0.0<br/>samples = 0.0%<br/>value = [0.0, 1.0]>, fillcolor="#399de5"] ;
368 -> 370 ;
371 [label=<gini = 0.0<br/>samples = 0.1%<br/>value = [1.0, 0.0]>, fillcolor="#e58139"] ;
367 -> 371 ;
372 [label=<phone_service &le; 0.5<br/>gini = 0.18<br/>samples = 0.7%<br/>value = [0.1, 0.9]>, fillcolor="#4fa8e8"] ;
324 -> 372 ;
373 [label=<total_revenue &le; 578.5<br/>gini = 0.29<br/>samples = 0.5%<br/>value = [0.17, 0.83]>, fillcolor="#63b2ea"] ;
372 -> 373 ;
374 [label=<age &le; 27.0<br/>gini = 0.48<br/>samples = 0.1%<br/>value = [0.6, 0.4]>, fillcolor="#f6d5bd"] ;
373 -> 374 ;
375 [label=<gini = 0.0<br/>samples = 0.1%<br/>value = [1.0, 0.0]>, fillcolor="#e58139"] ;
374 -> 375 ;
376 [label=<gini = 0.0<br/>samples = 0.0%<br/>value = [0.0, 1.0]>, fillcolor="#399de5"] ;
374 -> 376 ;
377 [label=<monthly_charge &le; 53.25<br/>gini = 0.1<br/>samples = 0.4%<br/>value = [0.06, 0.94]>, fillcolor="#45a3e7"] ;
373 -> 377 ;
378 [label=<gini = 0.0<br/>samples = 0.4%<br/>value = [0.0, 1.0]>, fillcolor="#399de5"] ;
377 -> 378 ;
379 [label=<gini = 0.0<br/>samples = 0.0%<br/>value = [1.0, 0.0]>, fillcolor="#e58139"] ;
377 -> 379 ;
380 [label=<gini = 0.0<br/>samples = 0.2%<br/>value = [0.0, 1.0]>, fillcolor="#399de5"] ;
372 -> 380 ;
381 [label=<total_long_distance_charges &le; 319.02<br/>gini = 0.5<br/>samples = 1.4%<br/>value = [0.49, 0.51]>, fillcolor="#f4f9fe"] ;
323 -> 381 ;
382 [label=<total_charges &le; 399.75<br/>gini = 0.5<br/>samples = 1.4%<br/>value = [0.45, 0.55]>, fillcolor="#ddeefb"] ;
381 -> 382 ;
383 [label=<internet_type &le; 2.0<br/>gini = 0.39<br/>samples = 0.5%<br/>value = [0.27, 0.73]>, fillcolor="#82c1ef"] ;
382 -> 383 ;
384 [label=<monthly_charge &le; 39.65<br/>gini = 0.5<br/>samples = 0.2%<br/>value = [0.5, 0.5]>, fillcolor="#ffffff"] ;
383 -> 384 ;
385 [label=<gini = 0.0<br/>samples = 0.1%<br/>value = [0.0, 1.0]>, fillcolor="#399de5"] ;
384 -> 385 ;
386 [label=<total_charges &le; 286.75<br/>gini = 0.44<br/>samples = 0.2%<br/>value = [0.67, 0.33]>, fillcolor="#f2c09c"] ;
384 -> 386 ;
387 [label=<gini = 0.0<br/>samples = 0.1%<br/>value = [1.0, 0.0]>, fillcolor="#e58139"] ;
386 -> 387 ;
388 [label=<unlimited_data &le; 0.5<br/>gini = 0.38<br/>samples = 0.1%<br/>value = [0.25, 0.75]>, fillcolor="#7bbeee"] ;
386 -> 388 ;
389 [label=<gini = 0.0<br/>samples = 0.0%<br/>value = [1.0, 0.0]>, fillcolor="#e58139"] ;
388 -> 389 ;
390 [label=<gini = 0.0<br/>samples = 0.1%<br/>value = [0.0, 1.0]>, fillcolor="#399de5"] ;
388 -> 390 ;
391 [label=<total_long_distance_charges &le; 184.08<br/>gini = 0.13<br/>samples = 0.3%<br/>value = [0.07, 0.93]>, fillcolor="#48a5e7"] ;
383 -> 391 ;
392 [label=<monthly_charge &le; 19.48<br/>gini = 0.38<br/>samples = 0.1%<br/>value = [0.25, 0.75]>, fillcolor="#7bbeee"] ;
391 -> 392 ;
393 [label=<gini = 0.0<br/>samples = 0.0%<br/>value = [1.0, 0.0]>, fillcolor="#e58139"] ;
392 -> 393 ;
394 [label=<gini = 0.0<br/>samples = 0.1%<br/>value = [0.0, 1.0]>, fillcolor="#399de5"] ;
392 -> 394 ;
395 [label=<gini = 0.0<br/>samples = 0.2%<br/>value = [0.0, 1.0]>, fillcolor="#399de5"] ;
391 -> 395 ;
396 [label=<monthly_charge &le; 30.4<br/>gini = 0.49<br/>samples = 0.8%<br/>value = [0.58, 0.42]>, fillcolor="#f8ddc9"] ;
382 -> 396 ;
397 [label=<gini = 0.0<br/>samples = 0.1%<br/>value = [0.0, 1.0]>, fillcolor="#399de5"] ;
396 -> 397 ;
398 [label=<tenure_in_months &le; 24.0<br/>gini = 0.44<br/>samples = 0.8%<br/>value = [0.67, 0.33]>, fillcolor="#f2c09c"] ;
396 -> 398 ;
399 [label=<total_revenue &le; 565.63<br/>gini = 0.49<br/>samples = 0.5%<br/>value = [0.44, 0.56]>, fillcolor="#d3e9f9"] ;
398 -> 399 ;
400 [label=<gini = 0.0<br/>samples = 0.1%<br/>value = [1.0, 0.0]>, fillcolor="#e58139"] ;
399 -> 400 ;
401 [label=<number_of_referrals &le; 1.5<br/>gini = 0.38<br/>samples = 0.4%<br/>value = [0.25, 0.75]>, fillcolor="#7bbeee"] ;
399 -> 401 ;
402 [label=<gini = 0.0<br/>samples = 0.1%<br/>value = [1.0, 0.0]>, fillcolor="#e58139"] ;
401 -> 402 ;
403 [label=<gini = 0.0<br/>samples = 0.3%<br/>value = [0.0, 1.0]>, fillcolor="#399de5"] ;
401 -> 403 ;
404 [label=<streaming_tv &le; 0.5<br/>gini = 0.21<br/>samples = 0.3%<br/>value = [0.88, 0.12]>, fillcolor="#e89253"] ;
398 -> 404 ;
405 [label=<total_revenue &le; 1316.3<br/>gini = 0.35<br/>samples = 0.2%<br/>value = [0.78, 0.22]>, fillcolor="#eca572"] ;
404 -> 405 ;
406 [label=<total_revenue &le; 649.9<br/>gini = 0.22<br/>samples = 0.2%<br/>value = [0.88, 0.12]>, fillcolor="#e99355"] ;
405 -> 406 ;
407 [label=<number_of_referrals &le; 7.5<br/>gini = 0.44<br/>samples = 0.1%<br/>value = [0.67, 0.33]>, fillcolor="#f2c09c"] ;
406 -> 407 ;
408 [label=<gini = 0.0<br/>samples = 0.0%<br/>value = [1.0, 0.0]>, fillcolor="#e58139"] ;
407 -> 408 ;
409 [label=<gini = 0.0<br/>samples = 0.0%<br/>value = [0.0, 1.0]>, fillcolor="#399de5"] ;
407 -> 409 ;
410 [label=<gini = 0.0<br/>samples = 0.1%<br/>value = [1.0, 0.0]>, fillcolor="#e58139"] ;
406 -> 410 ;
411 [label=<gini = 0.0<br/>samples = 0.0%<br/>value = [0.0, 1.0]>, fillcolor="#399de5"] ;
405 -> 411 ;
412 [label=<gini = 0.0<br/>samples = 0.1%<br/>value = [1.0, 0.0]>, fillcolor="#e58139"] ;
404 -> 412 ;
413 [label=<gini = 0.0<br/>samples = 0.1%<br/>value = [1.0, 0.0]>, fillcolor="#e58139"] ;
381 -> 413 ;
414 [label=<online_backup &le; 0.5<br/>gini = 0.19<br/>samples = 1.6%<br/>value = [0.11, 0.89]>, fillcolor="#51a9e8"] ;
322 -> 414 ;
415 [label=<total_long_distance_charges &le; 333.49<br/>gini = 0.22<br/>samples = 1.4%<br/>value = [0.13, 0.87]>, fillcolor="#56abe9"] ;
414 -> 415 ;
416 [label=<premium_support &le; 0.5<br/>gini = 0.18<br/>samples = 1.3%<br/>value = [0.1, 0.9]>, fillcolor="#4fa8e8"] ;
415 -> 416 ;
417 [label=<state &le; 0.5<br/>gini = 0.09<br/>samples = 1.1%<br/>value = [0.05, 0.95]>, fillcolor="#42a2e6"] ;
416 -> 417 ;
418 [label=<value_deal &le; 4.0<br/>gini = 0.5<br/>samples = 0.1%<br/>value = [0.5, 0.5]>, fillcolor="#ffffff"] ;
417 -> 418 ;
419 [label=<gini = 0.0<br/>samples = 0.0%<br/>value = [0.0, 1.0]>, fillcolor="#399de5"] ;
418 -> 419 ;
420 [label=<gini = 0.0<br/>samples = 0.0%<br/>value = [1.0, 0.0]>, fillcolor="#e58139"] ;
418 -> 420 ;
421 [label=<age &le; 51.5<br/>gini = 0.05<br/>samples = 1.0%<br/>value = [0.02, 0.98]>, fillcolor="#3e9fe6"] ;
417 -> 421 ;
422 [label=<gini = 0.0<br/>samples = 0.8%<br/>value = [0.0, 1.0]>, fillcolor="#399de5"] ;
421 -> 422 ;
423 [label=<total_revenue &le; 835.36<br/>gini = 0.38<br/>samples = 0.1%<br/>value = [0.25, 0.75]>, fillcolor="#7bbeee"] ;
421 -> 423 ;
424 [label=<age &le; 58.5<br/>gini = 0.5<br/>samples = 0.1%<br/>value = [0.5, 0.5]>, fillcolor="#ffffff"] ;
423 -> 424 ;
425 [label=<gini = 0.0<br/>samples = 0.0%<br/>value = [1.0, 0.0]>, fillcolor="#e58139"] ;
424 -> 425 ;
426 [label=<gini = 0.0<br/>samples = 0.0%<br/>value = [0.0, 1.0]>, fillcolor="#399de5"] ;
424 -> 426 ;
427 [label=<gini = 0.0<br/>samples = 0.1%<br/>value = [0.0, 1.0]>, fillcolor="#399de5"] ;
423 -> 427 ;
428 [label=<payment_method &le; 0.5<br/>gini = 0.49<br/>samples = 0.2%<br/>value = [0.43, 0.57]>, fillcolor="#cee6f8"] ;
416 -> 428 ;
429 [label=<gini = 0.0<br/>samples = 0.1%<br/>value = [0.0, 1.0]>, fillcolor="#399de5"] ;
428 -> 429 ;
430 [label=<age &le; 40.0<br/>gini = 0.48<br/>samples = 0.2%<br/>value = [0.6, 0.4]>, fillcolor="#f6d5bd"] ;
428 -> 430 ;
431 [label=<streaming_music &le; 0.5<br/>gini = 0.44<br/>samples = 0.1%<br/>value = [0.33, 0.67]>, fillcolor="#9ccef2"] ;
430 -> 431 ;
432 [label=<gini = 0.0<br/>samples = 0.0%<br/>value = [1.0, 0.0]>, fillcolor="#e58139"] ;
431 -> 432 ;
433 [label=<gini = 0.0<br/>samples = 0.1%<br/>value = [0.0, 1.0]>, fillcolor="#399de5"] ;
431 -> 433 ;
434 [label=<gini = 0.0<br/>samples = 0.1%<br/>value = [1.0, 0.0]>, fillcolor="#e58139"] ;
430 -> 434 ;
435 [label=<monthly_charge &le; 42.8<br/>gini = 0.5<br/>samples = 0.1%<br/>value = [0.5, 0.5]>, fillcolor="#ffffff"] ;
415 -> 435 ;
436 [label=<gini = 0.0<br/>samples = 0.0%<br/>value = [1.0, 0.0]>, fillcolor="#e58139"] ;
435 -> 436 ;
437 [label=<gini = 0.0<br/>samples = 0.1%<br/>value = [0.0, 1.0]>, fillcolor="#399de5"] ;
435 -> 437 ;
438 [label=<gini = 0.0<br/>samples = 0.2%<br/>value = [0.0, 1.0]>, fillcolor="#399de5"] ;
414 -> 438 ;
439 [label=<payment_method &le; 0.5<br/>gini = 0.46<br/>samples = 4.6%<br/>value = [0.64, 0.36]>, fillcolor="#f4c9aa"] ;
321 -> 439 ;
440 [label=<total_charges &le; 1662.9<br/>gini = 0.44<br/>samples = 3.3%<br/>value = [0.68, 0.32]>, fillcolor="#f1bc96"] ;
439 -> 440 ;
441 [label=<number_of_referrals &le; 14.5<br/>gini = 0.38<br/>samples = 3.0%<br/>value = [0.75, 0.25]>, fillcolor="#eeab7c"] ;
440 -> 441 ;
442 [label=<premium_support &le; 0.5<br/>gini = 0.35<br/>samples = 2.9%<br/>value = [0.77, 0.23]>, fillcolor="#eda673"] ;
441 -> 442 ;
443 [label=<total_charges &le; 497.57<br/>gini = 0.31<br/>samples = 2.5%<br/>value = [0.81, 0.19]>, fillcolor="#eb9f68"] ;
442 -> 443 ;
444 [label=<value_deal &le; 4.5<br/>gini = 0.11<br/>samples = 0.7%<br/>value = [0.94, 0.06]>, fillcolor="#e78946"] ;
443 -> 444 ;
445 [label=<gini = 0.0<br/>samples = 0.5%<br/>value = [1.0, 0.0]>, fillcolor="#e58139"] ;
444 -> 445 ;
446 [label=<total_long_distance_charges &le; 87.35<br/>gini = 0.38<br/>samples = 0.2%<br/>value = [0.75, 0.25]>, fillcolor="#eeab7b"] ;
444 -> 446 ;
447 [label=<gini = 0.0<br/>samples = 0.1%<br/>value = [1.0, 0.0]>, fillcolor="#e58139"] ;
446 -> 447 ;
448 [label=<unlimited_data &le; 0.5<br/>gini = 0.5<br/>samples = 0.1%<br/>value = [0.5, 0.5]>, fillcolor="#ffffff"] ;
446 -> 448 ;
449 [label=<state &le; 14.0<br/>gini = 0.44<br/>samples = 0.1%<br/>value = [0.33, 0.67]>, fillcolor="#9ccef2"] ;
448 -> 449 ;
450 [label=<gini = 0.0<br/>samples = 0.0%<br/>value = [1.0, 0.0]>, fillcolor="#e58139"] ;
449 -> 450 ;
451 [label=<gini = 0.0<br/>samples = 0.0%<br/>value = [0.0, 1.0]>, fillcolor="#399de5"] ;
449 -> 451 ;
452 [label=<gini = 0.0<br/>samples = 0.0%<br/>value = [1.0, 0.0]>, fillcolor="#e58139"] ;
448 -> 452 ;
453 [label=<paperless_billing &le; 0.5<br/>gini = 0.37<br/>samples = 1.8%<br/>value = [0.76, 0.24]>, fillcolor="#eda978"] ;
443 -> 453 ;
454 [label=<total_long_distance_charges &le; 311.23<br/>gini = 0.5<br/>samples = 0.5%<br/>value = [0.52, 0.48]>, fillcolor="#fdf4ed"] ;
453 -> 454 ;
455 [label=<age &le; 51.5<br/>gini = 0.46<br/>samples = 0.5%<br/>value = [0.65, 0.35]>, fillcolor="#f3c6a5"] ;
454 -> 455 ;
456 [label=<state &le; 14.0<br/>gini = 0.15<br/>samples = 0.3%<br/>value = [0.92, 0.08]>, fillcolor="#e78c4b"] ;
455 -> 456 ;
457 [label=<gini = 0.0<br/>samples = 0.2%<br/>value = [1.0, 0.0]>, fillcolor="#e58139"] ;
456 -> 457 ;
458 [label=<device_protection_plan &le; 0.5<br/>gini = 0.38<br/>samples = 0.1%<br/>value = [0.75, 0.25]>, fillcolor="#eeab7b"] ;
456 -> 458 ;
459 [label=<gini = 0.0<br/>samples = 0.1%<br/>value = [1.0, 0.0]>, fillcolor="#e58139"] ;
458 -> 459 ;
460 [label=<gini = 0.0<br/>samples = 0.0%<br/>value = [0.0, 1.0]>, fillcolor="#399de5"] ;
458 -> 460 ;
461 [label=<gini = 0.0<br/>samples = 0.1%<br/>value = [0.0, 1.0]>, fillcolor="#399de5"] ;
455 -> 461 ;
462 [label=<gini = 0.0<br/>samples = 0.1%<br/>value = [0.0, 1.0]>, fillcolor="#399de5"] ;
454 -> 462 ;
463 [label=<number_of_referrals &le; 7.5<br/>gini = 0.28<br/>samples = 1.3%<br/>value = [0.83, 0.17]>, fillcolor="#ea9a61"] ;
453 -> 463 ;
464 [label=<total_long_distance_charges &le; 290.52<br/>gini = 0.41<br/>samples = 0.8%<br/>value = [0.71, 0.29]>, fillcolor="#f0b48a"] ;
463 -> 464 ;
465 [label=<state &le; 17.5<br/>gini = 0.46<br/>samples = 0.7%<br/>value = [0.65, 0.35]>, fillcolor="#f3c6a6"] ;
464 -> 465 ;
466 [label=<number_of_referrals &le; 4.5<br/>gini = 0.24<br/>samples = 0.5%<br/>value = [0.86, 0.14]>, fillcolor="#e9965a"] ;
465 -> 466 ;
467 [label=<gini = 0.0<br/>samples = 0.2%<br/>value = [1.0, 0.0]>, fillcolor="#e58139"] ;
466 -> 467 ;
468 [label=<device_protection_plan &le; 0.5<br/>gini = 0.44<br/>samples = 0.2%<br/>value = [0.67, 0.33]>, fillcolor="#f2c09c"] ;
466 -> 468 ;
469 [label=<total_charges &le; 989.8<br/>gini = 0.28<br/>samples = 0.1%<br/>value = [0.83, 0.17]>, fillcolor="#ea9a61"] ;
468 -> 469 ;
470 [label=<gini = 0.0<br/>samples = 0.1%<br/>value = [1.0, 0.0]>, fillcolor="#e58139"] ;
469 -> 470 ;
471 [label=<total_extra_data_charges &le; 40.0<br/>gini = 0.5<br/>samples = 0.1%<br/>value = [0.5, 0.5]>, fillcolor="#ffffff"] ;
469 -> 471 ;
472 [label=<gini = 0.0<br/>samples = 0.0%<br/>value = [0.0, 1.0]>, fillcolor="#399de5"] ;
471 -> 472 ;
473 [label=<gini = 0.0<br/>samples = 0.0%<br/>value = [1.0, 0.0]>, fillcolor="#e58139"] ;
471 -> 473 ;
474 [label=<gender &le; 0.5<br/>gini = 0.44<br/>samples = 0.1%<br/>value = [0.33, 0.67]>, fillcolor="#9ccef2"] ;
468 -> 474 ;
475 [label=<gini = 0.0<br/>samples = 0.1%<br/>value = [0.0, 1.0]>, fillcolor="#399de5"] ;
474 -> 475 ;
476 [label=<gini = 0.0<br/>samples = 0.0%<br/>value = [1.0, 0.0]>, fillcolor="#e58139"] ;
474 -> 476 ;
477 [label=<total_charges &le; 724.95<br/>gini = 0.32<br/>samples = 0.2%<br/>value = [0.2, 0.8]>, fillcolor="#6ab6ec"] ;
465 -> 477 ;
478 [label=<gini = 0.0<br/>samples = 0.1%<br/>value = [0.0, 1.0]>, fillcolor="#399de5"] ;
477 -> 478 ;
479 [label=<total_charges &le; 826.85<br/>gini = 0.44<br/>samples = 0.1%<br/>value = [0.33, 0.67]>, fillcolor="#9ccef2"] ;
477 -> 479 ;
480 [label=<gini = 0.0<br/>samples = 0.0%<br/>value = [1.0, 0.0]>, fillcolor="#e58139"] ;
479 -> 480 ;
481 [label=<gini = 0.0<br/>samples = 0.1%<br/>value = [0.0, 1.0]>, fillcolor="#399de5"] ;
479 -> 481 ;
482 [label=<gini = 0.0<br/>samples = 0.1%<br/>value = [1.0, 0.0]>, fillcolor="#e58139"] ;
464 -> 482 ;
483 [label=<gini = 0.0<br/>samples = 0.5%<br/>value = [1.0, 0.0]>, fillcolor="#e58139"] ;
463 -> 483 ;
484 [label=<total_revenue &le; 1083.23<br/>gini = 0.5<br/>samples = 0.3%<br/>value = [0.53, 0.47]>, fillcolor="#fcf1e9"] ;
442 -> 484 ;
485 [label=<total_long_distance_charges &le; 91.7<br/>gini = 0.4<br/>samples = 0.2%<br/>value = [0.73, 0.27]>, fillcolor="#efb083"] ;
484 -> 485 ;
486 [label=<gini = 0.0<br/>samples = 0.1%<br/>value = [0.0, 1.0]>, fillcolor="#399de5"] ;
485 -> 486 ;
487 [label=<gini = 0.0<br/>samples = 0.1%<br/>value = [1.0, 0.0]>, fillcolor="#e58139"] ;
485 -> 487 ;
488 [label=<paperless_billing &le; 0.5<br/>gini = 0.28<br/>samples = 0.1%<br/>value = [0.17, 0.83]>, fillcolor="#61b1ea"] ;
484 -> 488 ;
489 [label=<gini = 0.0<br/>samples = 0.0%<br/>value = [1.0, 0.0]>, fillcolor="#e58139"] ;
488 -> 489 ;
490 [label=<gini = 0.0<br/>samples = 0.1%<br/>value = [0.0, 1.0]>, fillcolor="#399de5"] ;
488 -> 490 ;
491 [label=<state &le; 8.0<br/>gini = 0.28<br/>samples = 0.1%<br/>value = [0.17, 0.83]>, fillcolor="#61b1ea"] ;
441 -> 491 ;
492 [label=<gini = 0.0<br/>samples = 0.1%<br/>value = [0.0, 1.0]>, fillcolor="#399de5"] ;
491 -> 492 ;
493 [label=<total_long_distance_charges &le; 82.06<br/>gini = 0.5<br/>samples = 0.1%<br/>value = [0.5, 0.5]>, fillcolor="#ffffff"] ;
491 -> 493 ;
494 [label=<gini = 0.0<br/>samples = 0.0%<br/>value = [1.0, 0.0]>, fillcolor="#e58139"] ;
493 -> 494 ;
495 [label=<gini = 0.0<br/>samples = 0.0%<br/>value = [0.0, 1.0]>, fillcolor="#399de5"] ;
493 -> 495 ;
496 [label=<monthly_charge &le; 72.62<br/>gini = 0.12<br/>samples = 0.4%<br/>value = [0.06, 0.94]>, fillcolor="#46a4e7"] ;
440 -> 496 ;
497 [label=<gini = 0.0<br/>samples = 0.0%<br/>value = [1.0, 0.0]>, fillcolor="#e58139"] ;
496 -> 497 ;
498 [label=<gini = 0.0<br/>samples = 0.3%<br/>value = [0.0, 1.0]>, fillcolor="#399de5"] ;
496 -> 498 ;
499 [label=<streaming_music &le; 0.5<br/>gini = 0.5<br/>samples = 1.2%<br/>value = [0.53, 0.47]>, fillcolor="#fcf3ec"] ;
439 -> 499 ;
500 [label=<streaming_tv &le; 0.5<br/>gini = 0.38<br/>samples = 0.6%<br/>value = [0.74, 0.26]>, fillcolor="#eead7e"] ;
499 -> 500 ;
501 [label=<tenure_in_months &le; 24.5<br/>gini = 0.43<br/>samples = 0.4%<br/>value = [0.69, 0.31]>, fillcolor="#f1ba93"] ;
500 -> 501 ;
502 [label=<paperless_billing &le; 0.5<br/>gini = 0.15<br/>samples = 0.2%<br/>value = [0.92, 0.08]>, fillcolor="#e78c4b"] ;
501 -> 502 ;
503 [label=<gini = 0.0<br/>samples = 0.0%<br/>value = [0.0, 1.0]>, fillcolor="#399de5"] ;
502 -> 503 ;
504 [label=<gini = 0.0<br/>samples = 0.2%<br/>value = [1.0, 0.0]>, fillcolor="#e58139"] ;
502 -> 504 ;
505 [label=<gini = 0.0<br/>samples = 0.1%<br/>value = [0.0, 1.0]>, fillcolor="#399de5"] ;
501 -> 505 ;
506 [label=<premium_support &le; 0.5<br/>gini = 0.3<br/>samples = 0.2%<br/>value = [0.82, 0.18]>, fillcolor="#eb9d65"] ;
500 -> 506 ;
507 [label=<state &le; 9.0<br/>gini = 0.5<br/>samples = 0.1%<br/>value = [0.5, 0.5]>, fillcolor="#ffffff"] ;
506 -> 507 ;
508 [label=<gini = 0.0<br/>samples = 0.0%<br/>value = [1.0, 0.0]>, fillcolor="#e58139"] ;
507 -> 508 ;
509 [label=<gini = 0.0<br/>samples = 0.0%<br/>value = [0.0, 1.0]>, fillcolor="#399de5"] ;
507 -> 509 ;
510 [label=<paperless_billing &le; 0.5<br/>gini = 0.2<br/>samples = 0.2%<br/>value = [0.89, 0.11]>, fillcolor="#e89152"] ;
506 -> 510 ;
511 [label=<gini = 0.0<br/>samples = 0.0%<br/>value = [0.0, 1.0]>, fillcolor="#399de5"] ;
510 -> 511 ;
512 [label=<gini = 0.0<br/>samples = 0.1%<br/>value = [1.0, 0.0]>, fillcolor="#e58139"] ;
510 -> 512 ;
513 [label=<tenure_in_months &le; 27.5<br/>gini = 0.45<br/>samples = 0.6%<br/>value = [0.34, 0.66]>, fillcolor="#a1d0f3"] ;
499 -> 513 ;
514 [label=<online_backup &le; 0.5<br/>gini = 0.36<br/>samples = 0.5%<br/>value = [0.23, 0.77]>, fillcolor="#74baed"] ;
513 -> 514 ;
515 [label=<state &le; 6.5<br/>gini = 0.4<br/>samples = 0.4%<br/>value = [0.27, 0.73]>, fillcolor="#83c2ef"] ;
514 -> 515 ;
516 [label=<gini = 0.0<br/>samples = 0.1%<br/>value = [1.0, 0.0]>, fillcolor="#e58139"] ;
515 -> 516 ;
517 [label=<total_revenue &le; 398.26<br/>gini = 0.2<br/>samples = 0.3%<br/>value = [0.11, 0.89]>, fillcolor="#52a9e8"] ;
515 -> 517 ;
518 [label=<gini = 0.0<br/>samples = 0.0%<br/>value = [1.0, 0.0]>, fillcolor="#e58139"] ;
517 -> 518 ;
519 [label=<gini = 0.0<br/>samples = 0.2%<br/>value = [0.0, 1.0]>, fillcolor="#399de5"] ;
517 -> 519 ;
520 [label=<gini = 0.0<br/>samples = 0.1%<br/>value = [0.0, 1.0]>, fillcolor="#399de5"] ;
514 -> 520 ;
521 [label=<total_revenue &le; 2661.75<br/>gini = 0.28<br/>samples = 0.2%<br/>value = [0.83, 0.17]>, fillcolor="#ea9a61"] ;
513 -> 521 ;
522 [label=<gini = 0.0<br/>samples = 0.1%<br/>value = [1.0, 0.0]>, fillcolor="#e58139"] ;
521 -> 522 ;
523 [label=<gini = 0.0<br/>samples = 0.0%<br/>value = [0.0, 1.0]>, fillcolor="#399de5"] ;
521 -> 523 ;
524 [label=<total_revenue &le; 3555.5<br/>gini = 0.4<br/>samples = 6.0%<br/>value = [0.27, 0.73]>, fillcolor="#84c2ef"] ;
320 -> 524 ;
525 [label=<monthly_charge &le; 99.25<br/>gini = 0.35<br/>samples = 4.9%<br/>value = [0.23, 0.77]>, fillcolor="#74baed"] ;
524 -> 525 ;
526 [label=<streaming_tv &le; 0.5<br/>gini = 0.32<br/>samples = 4.7%<br/>value = [0.2, 0.8]>, fillcolor="#6bb6ec"] ;
525 -> 526 ;
527 [label=<tenure_in_months &le; 28.5<br/>gini = 0.29<br/>samples = 3.6%<br/>value = [0.17, 0.83]>, fillcolor="#63b2eb"] ;
526 -> 527 ;
528 [label=<internet_type &le; 0.5<br/>gini = 0.23<br/>samples = 3.0%<br/>value = [0.13, 0.87]>, fillcolor="#57ace9"] ;
527 -> 528 ;
529 [label=<gender &le; 0.5<br/>gini = 0.38<br/>samples = 0.4%<br/>value = [0.25, 0.75]>, fillcolor="#7bbeee"] ;
528 -> 529 ;
530 [label=<age &le; 37.0<br/>gini = 0.24<br/>samples = 0.3%<br/>value = [0.14, 0.86]>, fillcolor="#5aade9"] ;
529 -> 530 ;
531 [label=<gini = 0.0<br/>samples = 0.1%<br/>value = [0.0, 1.0]>, fillcolor="#399de5"] ;
530 -> 531 ;
532 [label=<payment_method &le; 0.5<br/>gini = 0.44<br/>samples = 0.1%<br/>value = [0.33, 0.67]>, fillcolor="#9ccef2"] ;
530 -> 532 ;
533 [label=<total_long_distance_charges &le; 535.47<br/>gini = 0.44<br/>samples = 0.1%<br/>value = [0.67, 0.33]>, fillcolor="#f2c09c"] ;
532 -> 533 ;
534 [label=<gini = 0.0<br/>samples = 0.0%<br/>value = [1.0, 0.0]>, fillcolor="#e58139"] ;
533 -> 534 ;
535 [label=<gini = 0.0<br/>samples = 0.0%<br/>value = [0.0, 1.0]>, fillcolor="#399de5"] ;
533 -> 535 ;
536 [label=<gini = 0.0<br/>samples = 0.1%<br/>value = [0.0, 1.0]>, fillcolor="#399de5"] ;
532 -> 536 ;
537 [label=<number_of_referrals &le; 6.5<br/>gini = 0.5<br/>samples = 0.1%<br/>value = [0.5, 0.5]>, fillcolor="#ffffff"] ;
529 -> 537 ;
538 [label=<gini = 0.0<br/>samples = 0.0%<br/>value = [1.0, 0.0]>, fillcolor="#e58139"] ;
537 -> 538 ;
539 [label=<gini = 0.0<br/>samples = 0.1%<br/>value = [0.0, 1.0]>, fillcolor="#399de5"] ;
537 -> 539 ;
540 [label=<state &le; 6.5<br/>gini = 0.2<br/>samples = 2.6%<br/>value = [0.11, 0.89]>, fillcolor="#52a9e8"] ;
528 -> 540 ;
541 [label=<gini = 0.0<br/>samples = 0.6%<br/>value = [0.0, 1.0]>, fillcolor="#399de5"] ;
540 -> 541 ;
542 [label=<total_extra_data_charges &le; 50.0<br/>gini = 0.27<br/>samples = 2.0%<br/>value = [0.16, 0.84]>, fillcolor="#5fb0ea"] ;
540 -> 542 ;
543 [label=<number_of_referrals &le; 14.5<br/>gini = 0.25<br/>samples = 1.9%<br/>value = [0.15, 0.85]>, fillcolor="#5baee9"] ;
542 -> 543 ;
544 [label=<age &le; 70.0<br/>gini = 0.22<br/>samples = 1.8%<br/>value = [0.13, 0.87]>, fillcolor="#56abe9"] ;
543 -> 544 ;
545 [label=<streaming_movies &le; 0.5<br/>gini = 0.15<br/>samples = 1.7%<br/>value = [0.08, 0.92]>, fillcolor="#4ba6e7"] ;
544 -> 545 ;
546 [label=<state &le; 11.5<br/>gini = 0.12<br/>samples = 1.4%<br/>value = [0.07, 0.93]>, fillcolor="#47a4e7"] ;
545 -> 546 ;
547 [label=<total_charges &le; 657.6<br/>gini = 0.44<br/>samples = 0.3%<br/>value = [0.33, 0.67]>, fillcolor="#9ccef2"] ;
546 -> 547 ;
548 [label=<married &le; 0.5<br/>gini = 0.48<br/>samples = 0.1%<br/>value = [0.6, 0.4]>, fillcolor="#f6d5bd"] ;
547 -> 548 ;
549 [label=<age &le; 46.5<br/>gini = 0.5<br/>samples = 0.1%<br/>value = [0.5, 0.5]>, fillcolor="#ffffff"] ;
548 -> 549 ;
550 [label=<gini = 0.0<br/>samples = 0.0%<br/>value = [1.0, 0.0]>, fillcolor="#e58139"] ;
549 -> 550 ;
551 [label=<gini = 0.0<br/>samples = 0.1%<br/>value = [0.0, 1.0]>, fillcolor="#399de5"] ;
549 -> 551 ;
552 [label=<gini = 0.0<br/>samples = 0.0%<br/>value = [1.0, 0.0]>, fillcolor="#e58139"] ;
548 -> 552 ;
553 [label=<gini = 0.0<br/>samples = 0.1%<br/>value = [0.0, 1.0]>, fillcolor="#399de5"] ;
547 -> 553 ;
554 [label=<device_protection_plan &le; 0.5<br/>gini = 0.04<br/>samples = 1.1%<br/>value = [0.02, 0.98]>, fillcolor="#3d9fe6"] ;
546 -> 554 ;
555 [label=<gini = 0.0<br/>samples = 0.9%<br/>value = [0.0, 1.0]>, fillcolor="#399de5"] ;
554 -> 555 ;
556 [label=<monthly_charge &le; 78.03<br/>gini = 0.28<br/>samples = 0.2%<br/>value = [0.17, 0.83]>, fillcolor="#61b1ea"] ;
554 -> 556 ;
557 [label=<gini = 0.0<br/>samples = 0.1%<br/>value = [0.0, 1.0]>, fillcolor="#399de5"] ;
556 -> 557 ;
558 [label=<gini = 0.0<br/>samples = 0.0%<br/>value = [1.0, 0.0]>, fillcolor="#e58139"] ;
556 -> 558 ;
559 [label=<total_revenue &le; 1190.62<br/>gini = 0.3<br/>samples = 0.3%<br/>value = [0.18, 0.82]>, fillcolor="#65b3eb"] ;
545 -> 559 ;
560 [label=<gini = 0.0<br/>samples = 0.0%<br/>value = [1.0, 0.0]>, fillcolor="#e58139"] ;
559 -> 560 ;
561 [label=<state &le; 14.0<br/>gini = 0.18<br/>samples = 0.2%<br/>value = [0.1, 0.9]>, fillcolor="#4fa8e8"] ;
559 -> 561 ;
562 [label=<gender &le; 0.5<br/>gini = 0.38<br/>samples = 0.1%<br/>value = [0.25, 0.75]>, fillcolor="#7bbeee"] ;
561 -> 562 ;
563 [label=<gini = 0.0<br/>samples = 0.1%<br/>value = [0.0, 1.0]>, fillcolor="#399de5"] ;
562 -> 563 ;
564 [label=<gini = 0.0<br/>samples = 0.0%<br/>value = [1.0, 0.0]>, fillcolor="#e58139"] ;
562 -> 564 ;
565 [label=<gini = 0.0<br/>samples = 0.1%<br/>value = [0.0, 1.0]>, fillcolor="#399de5"] ;
561 -> 565 ;
566 [label=<payment_method &le; 0.5<br/>gini = 0.44<br/>samples = 0.1%<br/>value = [0.67, 0.33]>, fillcolor="#f2c09c"] ;
544 -> 566 ;
567 [label=<unlimited_data &le; 0.5<br/>gini = 0.5<br/>samples = 0.1%<br/>value = [0.5, 0.5]>, fillcolor="#ffffff"] ;
566 -> 567 ;
568 [label=<gini = 0.0<br/>samples = 0.0%<br/>value = [0.0, 1.0]>, fillcolor="#399de5"] ;
567 -> 568 ;
569 [label=<gini = 0.0<br/>samples = 0.1%<br/>value = [1.0, 0.0]>, fillcolor="#e58139"] ;
567 -> 569 ;
570 [label=<gini = 0.0<br/>samples = 0.0%<br/>value = [1.0, 0.0]>, fillcolor="#e58139"] ;
566 -> 570 ;
571 [label=<monthly_charge &le; 66.18<br/>gini = 0.5<br/>samples = 0.1%<br/>value = [0.5, 0.5]>, fillcolor="#ffffff"] ;
543 -> 571 ;
572 [label=<gini = 0.0<br/>samples = 0.1%<br/>value = [0.0, 1.0]>, fillcolor="#399de5"] ;
571 -> 572 ;
573 [label=<gini = 0.0<br/>samples = 0.0%<br/>value = [1.0, 0.0]>, fillcolor="#e58139"] ;
571 -> 573 ;
574 [label=<state &le; 18.0<br/>gini = 0.5<br/>samples = 0.1%<br/>value = [0.5, 0.5]>, fillcolor="#ffffff"] ;
542 -> 574 ;
575 [label=<gini = 0.0<br/>samples = 0.1%<br/>value = [0.0, 1.0]>, fillcolor="#399de5"] ;
574 -> 575 ;
576 [label=<gini = 0.0<br/>samples = 0.0%<br/>value = [1.0, 0.0]>, fillcolor="#e58139"] ;
574 -> 576 ;
577 [label=<age &le; 46.0<br/>gini = 0.5<br/>samples = 0.6%<br/>value = [0.45, 0.55]>, fillcolor="#deeffb"] ;
527 -> 577 ;
578 [label=<number_of_referrals &le; 12.0<br/>gini = 0.18<br/>samples = 0.3%<br/>value = [0.1, 0.9]>, fillcolor="#4fa8e8"] ;
577 -> 578 ;
579 [label=<gini = 0.0<br/>samples = 0.2%<br/>value = [0.0, 1.0]>, fillcolor="#399de5"] ;
578 -> 579 ;
580 [label=<online_security &le; 0.5<br/>gini = 0.44<br/>samples = 0.1%<br/>value = [0.33, 0.67]>, fillcolor="#9ccef2"] ;
578 -> 580 ;
581 [label=<gini = 0.0<br/>samples = 0.0%<br/>value = [1.0, 0.0]>, fillcolor="#e58139"] ;
580 -> 581 ;
582 [label=<gini = 0.0<br/>samples = 0.0%<br/>value = [0.0, 1.0]>, fillcolor="#399de5"] ;
580 -> 582 ;
583 [label=<total_long_distance_charges &le; 627.54<br/>gini = 0.38<br/>samples = 0.3%<br/>value = [0.75, 0.25]>, fillcolor="#eeab7b"] ;
577 -> 583 ;
584 [label=<total_long_distance_charges &le; 430.79<br/>gini = 0.18<br/>samples = 0.2%<br/>value = [0.9, 0.1]>, fillcolor="#e88f4f"] ;
583 -> 584 ;
585 [label=<gini = 0.0<br/>samples = 0.0%<br/>value = [0.0, 1.0]>, fillcolor="#399de5"] ;
584 -> 585 ;
586 [label=<gini = 0.0<br/>samples = 0.2%<br/>value = [1.0, 0.0]>, fillcolor="#e58139"] ;
584 -> 586 ;
587 [label=<gini = 0.0<br/>samples = 0.1%<br/>value = [0.0, 1.0]>, fillcolor="#399de5"] ;
583 -> 587 ;
588 [label=<state &le; 8.5<br/>gini = 0.42<br/>samples = 1.1%<br/>value = [0.3, 0.7]>, fillcolor="#8fc7f0"] ;
526 -> 588 ;
589 [label=<value_deal &le; 3.5<br/>gini = 0.44<br/>samples = 0.3%<br/>value = [0.67, 0.33]>, fillcolor="#f2c09c"] ;
588 -> 589 ;
590 [label=<number_of_referrals &le; 9.5<br/>gini = 0.32<br/>samples = 0.1%<br/>value = [0.2, 0.8]>, fillcolor="#6ab6ec"] ;
589 -> 590 ;
591 [label=<total_charges &le; 1518.12<br/>gini = 0.5<br/>samples = 0.1%<br/>value = [0.5, 0.5]>, fillcolor="#ffffff"] ;
590 -> 591 ;
592 [label=<gini = 0.0<br/>samples = 0.0%<br/>value = [0.0, 1.0]>, fillcolor="#399de5"] ;
591 -> 592 ;
593 [label=<gini = 0.0<br/>samples = 0.0%<br/>value = [1.0, 0.0]>, fillcolor="#e58139"] ;
591 -> 593 ;
594 [label=<gini = 0.0<br/>samples = 0.1%<br/>value = [0.0, 1.0]>, fillcolor="#399de5"] ;
590 -> 594 ;
595 [label=<gini = 0.0<br/>samples = 0.2%<br/>value = [1.0, 0.0]>, fillcolor="#e58139"] ;
589 -> 595 ;
596 [label=<tenure_in_months &le; 14.5<br/>gini = 0.27<br/>samples = 0.7%<br/>value = [0.16, 0.84]>, fillcolor="#5fb0ea"] ;
588 -> 596 ;
597 [label=<monthly_charge &le; 84.62<br/>gini = 0.44<br/>samples = 0.4%<br/>value = [0.33, 0.67]>, fillcolor="#9ccef2"] ;
596 -> 597 ;
598 [label=<tenure_in_months &le; 11.5<br/>gini = 0.28<br/>samples = 0.2%<br/>value = [0.17, 0.83]>, fillcolor="#61b1ea"] ;
597 -> 598 ;
599 [label=<gini = 0.0<br/>samples = 0.2%<br/>value = [0.0, 1.0]>, fillcolor="#399de5"] ;
598 -> 599 ;
600 [label=<gini = 0.0<br/>samples = 0.0%<br/>value = [1.0, 0.0]>, fillcolor="#e58139"] ;
598 -> 600 ;
601 [label=<gini = 0.0<br/>samples = 0.1%<br/>value = [1.0, 0.0]>, fillcolor="#e58139"] ;
597 -> 601 ;
602 [label=<gini = 0.0<br/>samples = 0.4%<br/>value = [0.0, 1.0]>, fillcolor="#399de5"] ;
596 -> 602 ;
603 [label=<gini = 0.0<br/>samples = 0.2%<br/>value = [1.0, 0.0]>, fillcolor="#e58139"] ;
525 -> 603 ;
604 [label=<internet_type &le; 1.5<br/>gini = 0.5<br/>samples = 1.1%<br/>value = [0.45, 0.55]>, fillcolor="#ddeefb"] ;
524 -> 604 ;
605 [label=<total_revenue &le; 4413.95<br/>gini = 0.28<br/>samples = 0.1%<br/>value = [0.17, 0.83]>, fillcolor="#61b1ea"] ;
604 -> 605 ;
606 [label=<gini = 0.0<br/>samples = 0.0%<br/>value = [1.0, 0.0]>, fillcolor="#e58139"] ;
605 -> 606 ;
607 [label=<gini = 0.0<br/>samples = 0.1%<br/>value = [0.0, 1.0]>, fillcolor="#399de5"] ;
605 -> 607 ;
608 [label=<total_charges &le; 4690.08<br/>gini = 0.5<br/>samples = 1.0%<br/>value = [0.49, 0.51]>, fillcolor="#f7fbfe"] ;
604 -> 608 ;
609 [label=<monthly_charge &le; 96.15<br/>gini = 0.49<br/>samples = 0.8%<br/>value = [0.56, 0.44]>, fillcolor="#f9e2d2"] ;
608 -> 609 ;
610 [label=<tenure_in_months &le; 14.5<br/>gini = 0.49<br/>samples = 0.6%<br/>value = [0.44, 0.56]>, fillcolor="#d5eaf9"] ;
609 -> 610 ;
611 [label=<number_of_referrals &le; 1.0<br/>gini = 0.48<br/>samples = 0.4%<br/>value = [0.59, 0.41]>, fillcolor="#f7d9c4"] ;
610 -> 611 ;
612 [label=<gini = 0.0<br/>samples = 0.0%<br/>value = [1.0, 0.0]>, fillcolor="#e58139"] ;
611 -> 612 ;
613 [label=<total_charges &le; 3106.45<br/>gini = 0.5<br/>samples = 0.3%<br/>value = [0.5, 0.5]>, fillcolor="#ffffff"] ;
611 -> 613 ;
614 [label=<tenure_in_months &le; 6.0<br/>gini = 0.41<br/>samples = 0.2%<br/>value = [0.29, 0.71]>, fillcolor="#88c4ef"] ;
613 -> 614 ;
615 [label=<gini = 0.0<br/>samples = 0.0%<br/>value = [1.0, 0.0]>, fillcolor="#e58139"] ;
614 -> 615 ;
616 [label=<gender &le; 0.5<br/>gini = 0.28<br/>samples = 0.2%<br/>value = [0.17, 0.83]>, fillcolor="#61b1ea"] ;
614 -> 616 ;
617 [label=<gini = 0.0<br/>samples = 0.1%<br/>value = [0.0, 1.0]>, fillcolor="#399de5"] ;
616 -> 617 ;
618 [label=<gini = 0.0<br/>samples = 0.0%<br/>value = [1.0, 0.0]>, fillcolor="#e58139"] ;
616 -> 618 ;
619 [label=<state &le; 8.5<br/>gini = 0.41<br/>samples = 0.1%<br/>value = [0.71, 0.29]>, fillcolor="#efb388"] ;
613 -> 619 ;
620 [label=<gini = 0.0<br/>samples = 0.0%<br/>value = [0.0, 1.0]>, fillcolor="#399de5"] ;
619 -> 620 ;
621 [label=<gini = 0.0<br/>samples = 0.1%<br/>value = [1.0, 0.0]>, fillcolor="#e58139"] ;
619 -> 621 ;
622 [label=<paperless_billing &le; 0.5<br/>gini = 0.22<br/>samples = 0.2%<br/>value = [0.12, 0.88]>, fillcolor="#55abe9"] ;
610 -> 622 ;
623 [label=<premium_support &le; 0.5<br/>gini = 0.38<br/>samples = 0.1%<br/>value = [0.25, 0.75]>, fillcolor="#7bbeee"] ;
622 -> 623 ;
624 [label=<monthly_charge &le; 88.03<br/>gini = 0.5<br/>samples = 0.1%<br/>value = [0.5, 0.5]>, fillcolor="#ffffff"] ;
623 -> 624 ;
625 [label=<gini = 0.0<br/>samples = 0.0%<br/>value = [1.0, 0.0]>, fillcolor="#e58139"] ;
624 -> 625 ;
626 [label=<gini = 0.0<br/>samples = 0.0%<br/>value = [0.0, 1.0]>, fillcolor="#399de5"] ;
624 -> 626 ;
627 [label=<gini = 0.0<br/>samples = 0.0%<br/>value = [0.0, 1.0]>, fillcolor="#399de5"] ;
623 -> 627 ;
628 [label=<gini = 0.0<br/>samples = 0.1%<br/>value = [0.0, 1.0]>, fillcolor="#399de5"] ;
622 -> 628 ;
629 [label=<total_refunds &le; 26.99<br/>gini = 0.34<br/>samples = 0.2%<br/>value = [0.79, 0.21]>, fillcolor="#eca36f"] ;
609 -> 629 ;
630 [label=<tenure_in_months &le; 23.5<br/>gini = 0.26<br/>samples = 0.2%<br/>value = [0.85, 0.15]>, fillcolor="#ea985d"] ;
629 -> 630 ;
631 [label=<gini = 0.0<br/>samples = 0.1%<br/>value = [1.0, 0.0]>, fillcolor="#e58139"] ;
630 -> 631 ;
632 [label=<number_of_referrals &le; 10.5<br/>gini = 0.48<br/>samples = 0.1%<br/>value = [0.6, 0.4]>, fillcolor="#f6d5bd"] ;
630 -> 632 ;
633 [label=<gini = 0.0<br/>samples = 0.1%<br/>value = [1.0, 0.0]>, fillcolor="#e58139"] ;
632 -> 633 ;
634 [label=<gini = 0.0<br/>samples = 0.0%<br/>value = [0.0, 1.0]>, fillcolor="#399de5"] ;
632 -> 634 ;
635 [label=<gini = 0.0<br/>samples = 0.0%<br/>value = [0.0, 1.0]>, fillcolor="#399de5"] ;
629 -> 635 ;
636 [label=<monthly_charge &le; 96.5<br/>gini = 0.22<br/>samples = 0.1%<br/>value = [0.12, 0.88]>, fillcolor="#55abe9"] ;
608 -> 636 ;
637 [label=<gini = 0.0<br/>samples = 0.1%<br/>value = [0.0, 1.0]>, fillcolor="#399de5"] ;
636 -> 637 ;
638 [label=<tenure_in_months &le; 26.0<br/>gini = 0.38<br/>samples = 0.1%<br/>value = [0.25, 0.75]>, fillcolor="#7bbeee"] ;
636 -> 638 ;
639 [label=<gini = 0.0<br/>samples = 0.0%<br/>value = [0.0, 1.0]>, fillcolor="#399de5"] ;
638 -> 639 ;
640 [label=<gini = 0.0<br/>samples = 0.0%<br/>value = [1.0, 0.0]>, fillcolor="#e58139"] ;
638 -> 640 ;
641 [label=<total_charges &le; 873.38<br/>gini = 0.49<br/>samples = 13.5%<br/>value = [0.56, 0.44]>, fillcolor="#f9e4d5"] ;
319 -> 641 ;
642 [label=<age &le; 59.5<br/>gini = 0.42<br/>samples = 3.9%<br/>value = [0.7, 0.3]>, fillcolor="#f0b78e"] ;
641 -> 642 ;
643 [label=<total_charges &le; 792.98<br/>gini = 0.47<br/>samples = 2.8%<br/>value = [0.62, 0.38]>, fillcolor="#f5cfb3"] ;
642 -> 643 ;
644 [label=<total_extra_data_charges &le; 5.0<br/>gini = 0.49<br/>samples = 2.4%<br/>value = [0.58, 0.42]>, fillcolor="#f8dcc9"] ;
643 -> 644 ;
645 [label=<total_revenue &le; 875.06<br/>gini = 0.5<br/>samples = 2.1%<br/>value = [0.54, 0.46]>, fillcolor="#fbebdf"] ;
644 -> 645 ;
646 [label=<state &le; 6.5<br/>gini = 0.47<br/>samples = 1.6%<br/>value = [0.62, 0.38]>, fillcolor="#f5cdb1"] ;
645 -> 646 ;
647 [label=<premium_support &le; 0.5<br/>gini = 0.39<br/>samples = 0.4%<br/>value = [0.26, 0.74]>, fillcolor="#80c0ee"] ;
646 -> 647 ;
648 [label=<number_of_referrals &le; 2.5<br/>gini = 0.23<br/>samples = 0.3%<br/>value = [0.13, 0.87]>, fillcolor="#57ace9"] ;
647 -> 648 ;
649 [label=<gini = 0.0<br/>samples = 0.1%<br/>value = [0.0, 1.0]>, fillcolor="#399de5"] ;
648 -> 649 ;
650 [label=<tenure_in_months &le; 25.5<br/>gini = 0.38<br/>samples = 0.2%<br/>value = [0.25, 0.75]>, fillcolor="#7bbeee"] ;
648 -> 650 ;
651 [label=<state &le; 4.0<br/>gini = 0.5<br/>samples = 0.1%<br/>value = [0.5, 0.5]>, fillcolor="#ffffff"] ;
650 -> 651 ;
652 [label=<payment_method &le; 0.5<br/>gini = 0.44<br/>samples = 0.1%<br/>value = [0.67, 0.33]>, fillcolor="#f2c09c"] ;
651 -> 652 ;
653 [label=<gini = 0.0<br/>samples = 0.1%<br/>value = [1.0, 0.0]>, fillcolor="#e58139"] ;
652 -> 653 ;
654 [label=<gini = 0.0<br/>samples = 0.0%<br/>value = [0.0, 1.0]>, fillcolor="#399de5"] ;
652 -> 654 ;
655 [label=<gini = 0.0<br/>samples = 0.0%<br/>value = [0.0, 1.0]>, fillcolor="#399de5"] ;
651 -> 655 ;
656 [label=<gini = 0.0<br/>samples = 0.0%<br/>value = [0.0, 1.0]>, fillcolor="#399de5"] ;
650 -> 656 ;
657 [label=<paperless_billing &le; 0.5<br/>gini = 0.38<br/>samples = 0.1%<br/>value = [0.75, 0.25]>, fillcolor="#eeab7b"] ;
647 -> 657 ;
658 [label=<gini = 0.0<br/>samples = 0.0%<br/>value = [0.0, 1.0]>, fillcolor="#399de5"] ;
657 -> 658 ;
659 [label=<gini = 0.0<br/>samples = 0.1%<br/>value = [1.0, 0.0]>, fillcolor="#e58139"] ;
657 -> 659 ;
660 [label=<total_long_distance_charges &le; 272.87<br/>gini = 0.38<br/>samples = 1.2%<br/>value = [0.74, 0.26]>, fillcolor="#eead7e"] ;
646 -> 660 ;
661 [label=<internet_type &le; 2.5<br/>gini = 0.31<br/>samples = 1.1%<br/>value = [0.81, 0.19]>, fillcolor="#eb9f68"] ;
660 -> 661 ;
662 [label=<device_protection_plan &le; 0.5<br/>gini = 0.22<br/>samples = 1.0%<br/>value = [0.88, 0.12]>, fillcolor="#e99355"] ;
661 -> 662 ;
663 [label=<monthly_charge &le; 73.92<br/>gini = 0.14<br/>samples = 0.8%<br/>value = [0.93, 0.07]>, fillcolor="#e78b49"] ;
662 -> 663 ;
664 [label=<state &le; 17.5<br/>gini = 0.32<br/>samples = 0.1%<br/>value = [0.8, 0.2]>, fillcolor="#eca06a"] ;
663 -> 664 ;
665 [label=<married &le; 0.5<br/>gini = 0.5<br/>samples = 0.1%<br/>value = [0.5, 0.5]>, fillcolor="#ffffff"] ;
664 -> 665 ;
666 [label=<gini = 0.0<br/>samples = 0.0%<br/>value = [0.0, 1.0]>, fillcolor="#399de5"] ;
665 -> 666 ;
667 [label=<gini = 0.0<br/>samples = 0.0%<br/>value = [1.0, 0.0]>, fillcolor="#e58139"] ;
665 -> 667 ;
668 [label=<gini = 0.0<br/>samples = 0.0%<br/>value = [1.0, 0.0]>, fillcolor="#e58139"] ;
664 -> 668 ;
669 [label=<total_long_distance_charges &le; 144.21<br/>gini = 0.1<br/>samples = 0.7%<br/>value = [0.94, 0.06]>, fillcolor="#e78845"] ;
663 -> 669 ;
670 [label=<total_revenue &le; 629.9<br/>gini = 0.18<br/>samples = 0.4%<br/>value = [0.9, 0.1]>, fillcolor="#e88f4f"] ;
669 -> 670 ;
671 [label=<tenure_in_months &le; 4.5<br/>gini = 0.11<br/>samples = 0.3%<br/>value = [0.94, 0.06]>, fillcolor="#e78945"] ;
670 -> 671 ;
672 [label=<gini = 0.0<br/>samples = 0.1%<br/>value = [1.0, 0.0]>, fillcolor="#e58139"] ;
671 -> 672 ;
673 [label=<streaming_music &le; 0.5<br/>gini = 0.22<br/>samples = 0.2%<br/>value = [0.88, 0.12]>, fillcolor="#e99355"] ;
671 -> 673 ;
674 [label=<total_charges &le; 303.95<br/>gini = 0.32<br/>samples = 0.1%<br/>value = [0.8, 0.2]>, fillcolor="#eca06a"] ;
673 -> 674 ;
675 [label=<gini = 0.0<br/>samples = 0.0%<br/>value = [0.0, 1.0]>, fillcolor="#399de5"] ;
674 -> 675 ;
676 [label=<gini = 0.0<br/>samples = 0.1%<br/>value = [1.0, 0.0]>, fillcolor="#e58139"] ;
674 -> 676 ;
677 [label=<gini = 0.0<br/>samples = 0.1%<br/>value = [1.0, 0.0]>, fillcolor="#e58139"] ;
673 -> 677 ;
678 [label=<total_long_distance_charges &le; 135.96<br/>gini = 0.44<br/>samples = 0.1%<br/>value = [0.67, 0.33]>, fillcolor="#f2c09c"] ;
670 -> 678 ;
679 [label=<gini = 0.0<br/>samples = 0.0%<br/>value = [1.0, 0.0]>, fillcolor="#e58139"] ;
678 -> 679 ;
680 [label=<gini = 0.0<br/>samples = 0.0%<br/>value = [0.0, 1.0]>, fillcolor="#399de5"] ;
678 -> 680 ;
681 [label=<gini = 0.0<br/>samples = 0.3%<br/>value = [1.0, 0.0]>, fillcolor="#e58139"] ;
669 -> 681 ;
682 [label=<total_revenue &le; 379.79<br/>gini = 0.49<br/>samples = 0.1%<br/>value = [0.57, 0.43]>, fillcolor="#f8e0ce"] ;
662 -> 682 ;
683 [label=<gini = 0.0<br/>samples = 0.0%<br/>value = [0.0, 1.0]>, fillcolor="#399de5"] ;
682 -> 683 ;
684 [label=<gini = 0.0<br/>samples = 0.1%<br/>value = [1.0, 0.0]>, fillcolor="#e58139"] ;
682 -> 684 ;
685 [label=<gini = 0.0<br/>samples = 0.1%<br/>value = [0.0, 1.0]>, fillcolor="#399de5"] ;
661 -> 685 ;
686 [label=<payment_method &le; 0.5<br/>gini = 0.28<br/>samples = 0.1%<br/>value = [0.17, 0.83]>, fillcolor="#61b1ea"] ;
660 -> 686 ;
687 [label=<gini = 0.0<br/>samples = 0.1%<br/>value = [0.0, 1.0]>, fillcolor="#399de5"] ;
686 -> 687 ;
688 [label=<gini = 0.0<br/>samples = 0.0%<br/>value = [1.0, 0.0]>, fillcolor="#e58139"] ;
686 -> 688 ;
689 [label=<monthly_charge &le; 81.1<br/>gini = 0.23<br/>samples = 0.5%<br/>value = [0.13, 0.87]>, fillcolor="#57ace9"] ;
645 -> 689 ;
690 [label=<gini = 0.0<br/>samples = 0.3%<br/>value = [0.0, 1.0]>, fillcolor="#399de5"] ;
689 -> 690 ;
691 [label=<monthly_charge &le; 85.42<br/>gini = 0.5<br/>samples = 0.1%<br/>value = [0.5, 0.5]>, fillcolor="#ffffff"] ;
689 -> 691 ;
692 [label=<gini = 0.0<br/>samples = 0.0%<br/>value = [1.0, 0.0]>, fillcolor="#e58139"] ;
691 -> 692 ;
693 [label=<value_deal &le; 4.5<br/>gini = 0.44<br/>samples = 0.1%<br/>value = [0.33, 0.67]>, fillcolor="#9ccef2"] ;
691 -> 693 ;
694 [label=<gini = 0.0<br/>samples = 0.0%<br/>value = [0.0, 1.0]>, fillcolor="#399de5"] ;
693 -> 694 ;
695 [label=<monthly_charge &le; 95.92<br/>gini = 0.5<br/>samples = 0.1%<br/>value = [0.5, 0.5]>, fillcolor="#ffffff"] ;
693 -> 695 ;
696 [label=<gini = 0.0<br/>samples = 0.0%<br/>value = [1.0, 0.0]>, fillcolor="#e58139"] ;
695 -> 696 ;
697 [label=<gini = 0.0<br/>samples = 0.0%<br/>value = [0.0, 1.0]>, fillcolor="#399de5"] ;
695 -> 697 ;
698 [label=<total_extra_data_charges &le; 40.0<br/>gini = 0.32<br/>samples = 0.3%<br/>value = [0.8, 0.2]>, fillcolor="#eca06a"] ;
644 -> 698 ;
699 [label=<gini = 0.0<br/>samples = 0.2%<br/>value = [1.0, 0.0]>, fillcolor="#e58139"] ;
698 -> 699 ;
700 [label=<age &le; 53.5<br/>gini = 0.38<br/>samples = 0.1%<br/>value = [0.25, 0.75]>, fillcolor="#7bbeee"] ;
698 -> 700 ;
701 [label=<gini = 0.0<br/>samples = 0.1%<br/>value = [0.0, 1.0]>, fillcolor="#399de5"] ;
700 -> 701 ;
702 [label=<gini = 0.0<br/>samples = 0.0%<br/>value = [1.0, 0.0]>, fillcolor="#e58139"] ;
700 -> 702 ;
703 [label=<total_revenue &le; 1341.59<br/>gini = 0.27<br/>samples = 0.4%<br/>value = [0.84, 0.16]>, fillcolor="#ea995e"] ;
643 -> 703 ;
704 [label=<gini = 0.0<br/>samples = 0.4%<br/>value = [1.0, 0.0]>, fillcolor="#e58139"] ;
703 -> 704 ;
705 [label=<gini = 0.0<br/>samples = 0.1%<br/>value = [0.0, 1.0]>, fillcolor="#399de5"] ;
703 -> 705 ;
706 [label=<total_long_distance_charges &le; 308.86<br/>gini = 0.18<br/>samples = 1.1%<br/>value = [0.9, 0.1]>, fillcolor="#e88f4f"] ;
642 -> 706 ;
707 [label=<internet_service &le; 0.5<br/>gini = 0.08<br/>samples = 1.0%<br/>value = [0.96, 0.04]>, fillcolor="#e68742"] ;
706 -> 707 ;
708 [label=<gini = 0.0<br/>samples = 0.0%<br/>value = [0.0, 1.0]>, fillcolor="#399de5"] ;
707 -> 708 ;
709 [label=<monthly_charge &le; -5.5<br/>gini = 0.04<br/>samples = 1.0%<br/>value = [0.98, 0.02]>, fillcolor="#e6843d"] ;
707 -> 709 ;
710 [label=<gini = 0.0<br/>samples = 0.0%<br/>value = [0.0, 1.0]>, fillcolor="#399de5"] ;
709 -> 710 ;
711 [label=<gini = 0.0<br/>samples = 0.9%<br/>value = [1.0, 0.0]>, fillcolor="#e58139"] ;
709 -> 711 ;
712 [label=<number_of_referrals &le; 12.5<br/>gini = 0.48<br/>samples = 0.1%<br/>value = [0.4, 0.6]>, fillcolor="#bddef6"] ;
706 -> 712 ;
713 [label=<gini = 0.0<br/>samples = 0.1%<br/>value = [1.0, 0.0]>, fillcolor="#e58139"] ;
712 -> 713 ;
714 [label=<gini = 0.0<br/>samples = 0.1%<br/>value = [0.0, 1.0]>, fillcolor="#399de5"] ;
712 -> 714 ;
715 [label=<monthly_charge &le; 81.38<br/>gini = 0.5<br/>samples = 9.6%<br/>value = [0.5, 0.5]>, fillcolor="#fffefd"] ;
641 -> 715 ;
716 [label=<age &le; 60.0<br/>gini = 0.37<br/>samples = 2.8%<br/>value = [0.25, 0.75]>, fillcolor="#7abdee"] ;
715 -> 716 ;
717 [label=<total_revenue &le; 2386.78<br/>gini = 0.28<br/>samples = 2.3%<br/>value = [0.17, 0.83]>, fillcolor="#61b1ea"] ;
716 -> 717 ;
718 [label=<total_long_distance_charges &le; 539.89<br/>gini = 0.37<br/>samples = 1.5%<br/>value = [0.24, 0.76]>, fillcolor="#78bced"] ;
717 -> 718 ;
719 [label=<streaming_movies &le; 0.5<br/>gini = 0.24<br/>samples = 1.1%<br/>value = [0.14, 0.86]>, fillcolor="#58ade9"] ;
718 -> 719 ;
720 [label=<total_long_distance_charges &le; 53.21<br/>gini = 0.3<br/>samples = 0.8%<br/>value = [0.18, 0.82]>, fillcolor="#66b3eb"] ;
719 -> 720 ;
721 [label=<gini = 0.0<br/>samples = 0.0%<br/>value = [1.0, 0.0]>, fillcolor="#e58139"] ;
720 -> 721 ;
722 [label=<number_of_referrals &le; 6.5<br/>gini = 0.27<br/>samples = 0.8%<br/>value = [0.16, 0.84]>, fillcolor="#5fb0ea"] ;
720 -> 722 ;
723 [label=<total_charges &le; 1274.92<br/>gini = 0.38<br/>samples = 0.5%<br/>value = [0.25, 0.75]>, fillcolor="#7bbeee"] ;
722 -> 723 ;
724 [label=<total_revenue &le; 1243.47<br/>gini = 0.21<br/>samples = 0.3%<br/>value = [0.12, 0.88]>, fillcolor="#53aae8"] ;
723 -> 724 ;
725 [label=<total_revenue &le; 1197.13<br/>gini = 0.44<br/>samples = 0.1%<br/>value = [0.33, 0.67]>, fillcolor="#9ccef2"] ;
724 -> 725 ;
726 [label=<gini = 0.0<br/>samples = 0.1%<br/>value = [0.0, 1.0]>, fillcolor="#399de5"] ;
725 -> 726 ;
727 [label=<gini = 0.0<br/>samples = 0.0%<br/>value = [1.0, 0.0]>, fillcolor="#e58139"] ;
725 -> 727 ;
728 [label=<gini = 0.0<br/>samples = 0.2%<br/>value = [0.0, 1.0]>, fillcolor="#399de5"] ;
724 -> 728 ;
729 [label=<age &le; 54.5<br/>gini = 0.49<br/>samples = 0.2%<br/>value = [0.57, 0.43]>, fillcolor="#f8e0ce"] ;
723 -> 729 ;
730 [label=<internet_type &le; 0.5<br/>gini = 0.44<br/>samples = 0.1%<br/>value = [0.67, 0.33]>, fillcolor="#f2c09c"] ;
729 -> 730 ;
731 [label=<gini = 0.0<br/>samples = 0.0%<br/>value = [0.0, 1.0]>, fillcolor="#399de5"] ;
730 -> 731 ;
732 [label=<gini = 0.0<br/>samples = 0.1%<br/>value = [1.0, 0.0]>, fillcolor="#e58139"] ;
730 -> 732 ;
733 [label=<gini = 0.0<br/>samples = 0.0%<br/>value = [0.0, 1.0]>, fillcolor="#399de5"] ;
729 -> 733 ;
734 [label=<gini = 0.0<br/>samples = 0.3%<br/>value = [0.0, 1.0]>, fillcolor="#399de5"] ;
722 -> 734 ;
735 [label=<gini = 0.0<br/>samples = 0.2%<br/>value = [0.0, 1.0]>, fillcolor="#399de5"] ;
719 -> 735 ;
736 [label=<state &le; 9.0<br/>gini = 0.49<br/>samples = 0.5%<br/>value = [0.43, 0.57]>, fillcolor="#cee6f8"] ;
718 -> 736 ;
737 [label=<total_long_distance_charges &le; 654.58<br/>gini = 0.28<br/>samples = 0.1%<br/>value = [0.83, 0.17]>, fillcolor="#ea9a61"] ;
736 -> 737 ;
738 [label=<unlimited_data &le; 0.5<br/>gini = 0.48<br/>samples = 0.1%<br/>value = [0.6, 0.4]>, fillcolor="#f6d5bd"] ;
737 -> 738 ;
739 [label=<gini = 0.0<br/>samples = 0.0%<br/>value = [0.0, 1.0]>, fillcolor="#399de5"] ;
738 -> 739 ;
740 [label=<gini = 0.0<br/>samples = 0.0%<br/>value = [1.0, 0.0]>, fillcolor="#e58139"] ;
738 -> 740 ;
741 [label=<gini = 0.0<br/>samples = 0.1%<br/>value = [1.0, 0.0]>, fillcolor="#e58139"] ;
737 -> 741 ;
742 [label=<total_long_distance_charges &le; 663.07<br/>gini = 0.22<br/>samples = 0.3%<br/>value = [0.12, 0.88]>, fillcolor="#55abe9"] ;
736 -> 742 ;
743 [label=<age &le; 46.0<br/>gini = 0.44<br/>samples = 0.1%<br/>value = [0.67, 0.33]>, fillcolor="#f2c09c"] ;
742 -> 743 ;
744 [label=<gini = 0.0<br/>samples = 0.0%<br/>value = [1.0, 0.0]>, fillcolor="#e58139"] ;
743 -> 744 ;
745 [label=<gini = 0.0<br/>samples = 0.0%<br/>value = [0.0, 1.0]>, fillcolor="#399de5"] ;
743 -> 745 ;
746 [label=<gini = 0.0<br/>samples = 0.2%<br/>value = [0.0, 1.0]>, fillcolor="#399de5"] ;
742 -> 746 ;
747 [label=<gini = 0.0<br/>samples = 0.8%<br/>value = [0.0, 1.0]>, fillcolor="#399de5"] ;
717 -> 747 ;
748 [label=<number_of_referrals &le; 5.0<br/>gini = 0.49<br/>samples = 0.5%<br/>value = [0.55, 0.45]>, fillcolor="#fae7da"] ;
716 -> 748 ;
749 [label=<married &le; 0.5<br/>gini = 0.36<br/>samples = 0.3%<br/>value = [0.24, 0.76]>, fillcolor="#76bbed"] ;
748 -> 749 ;
750 [label=<total_revenue &le; 2281.42<br/>gini = 0.2<br/>samples = 0.1%<br/>value = [0.11, 0.89]>, fillcolor="#52a9e8"] ;
749 -> 750 ;
751 [label=<gini = 0.0<br/>samples = 0.0%<br/>value = [1.0, 0.0]>, fillcolor="#e58139"] ;
750 -> 751 ;
752 [label=<gini = 0.0<br/>samples = 0.1%<br/>value = [0.0, 1.0]>, fillcolor="#399de5"] ;
750 -> 752 ;
753 [label=<paperless_billing &le; 0.5<br/>gini = 0.47<br/>samples = 0.2%<br/>value = [0.38, 0.62]>, fillcolor="#b0d8f5"] ;
749 -> 753 ;
754 [label=<gini = 0.0<br/>samples = 0.1%<br/>value = [0.0, 1.0]>, fillcolor="#399de5"] ;
753 -> 754 ;
755 [label=<number_of_referrals &le; 3.0<br/>gini = 0.48<br/>samples = 0.1%<br/>value = [0.6, 0.4]>, fillcolor="#f6d5bd"] ;
753 -> 755 ;
756 [label=<gini = 0.0<br/>samples = 0.0%<br/>value = [0.0, 1.0]>, fillcolor="#399de5"] ;
755 -> 756 ;
757 [label=<gini = 0.0<br/>samples = 0.1%<br/>value = [1.0, 0.0]>, fillcolor="#e58139"] ;
755 -> 757 ;
758 [label=<gini = 0.0<br/>samples = 0.2%<br/>value = [1.0, 0.0]>, fillcolor="#e58139"] ;
748 -> 758 ;
759 [label=<total_extra_data_charges &le; 35.0<br/>gini = 0.47<br/>samples = 6.7%<br/>value = [0.63, 0.37]>, fillcolor="#f5ccb0"] ;
715 -> 759 ;
760 [label=<age &le; 33.5<br/>gini = 0.45<br/>samples = 6.0%<br/>value = [0.65, 0.35]>, fillcolor="#f3c4a3"] ;
759 -> 760 ;
761 [label=<total_revenue &le; 7241.11<br/>gini = 0.47<br/>samples = 1.6%<br/>value = [0.39, 0.61]>, fillcolor="#b6dbf5"] ;
760 -> 761 ;
762 [label=<device_protection_plan &le; 0.5<br/>gini = 0.5<br/>samples = 1.4%<br/>value = [0.46, 0.54]>, fillcolor="#e2f1fb"] ;
761 -> 762 ;
763 [label=<monthly_charge &le; 85.27<br/>gini = 0.42<br/>samples = 0.7%<br/>value = [0.3, 0.7]>, fillcolor="#8ec7f0"] ;
762 -> 763 ;
764 [label=<state &le; 12.5<br/>gini = 0.44<br/>samples = 0.3%<br/>value = [0.67, 0.33]>, fillcolor="#f2c09c"] ;
763 -> 764 ;
765 [label=<state &le; 7.5<br/>gini = 0.44<br/>samples = 0.2%<br/>value = [0.33, 0.67]>, fillcolor="#9ccef2"] ;
764 -> 765 ;
766 [label=<number_of_referrals &le; 13.5<br/>gini = 0.44<br/>samples = 0.1%<br/>value = [0.67, 0.33]>, fillcolor="#f2c09c"] ;
765 -> 766 ;
767 [label=<gini = 0.0<br/>samples = 0.1%<br/>value = [1.0, 0.0]>, fillcolor="#e58139"] ;
766 -> 767 ;
768 [label=<gini = 0.0<br/>samples = 0.0%<br/>value = [0.0, 1.0]>, fillcolor="#399de5"] ;
766 -> 768 ;
769 [label=<gini = 0.0<br/>samples = 0.1%<br/>value = [0.0, 1.0]>, fillcolor="#399de5"] ;
765 -> 769 ;
770 [label=<gini = 0.0<br/>samples = 0.1%<br/>value = [1.0, 0.0]>, fillcolor="#e58139"] ;
764 -> 770 ;
771 [label=<age &le; 21.5<br/>gini = 0.1<br/>samples = 0.4%<br/>value = [0.06, 0.94]>, fillcolor="#45a3e7"] ;
763 -> 771 ;
772 [label=<gini = 0.0<br/>samples = 0.0%<br/>value = [1.0, 0.0]>, fillcolor="#e58139"] ;
771 -> 772 ;
773 [label=<gini = 0.0<br/>samples = 0.4%<br/>value = [0.0, 1.0]>, fillcolor="#399de5"] ;
771 -> 773 ;
774 [label=<tenure_in_months &le; 1.5<br/>gini = 0.48<br/>samples = 0.7%<br/>value = [0.61, 0.39]>, fillcolor="#f6d3ba"] ;
762 -> 774 ;
775 [label=<gini = 0.0<br/>samples = 0.1%<br/>value = [0.0, 1.0]>, fillcolor="#399de5"] ;
774 -> 775 ;
776 [label=<monthly_charge &le; 107.92<br/>gini = 0.46<br/>samples = 0.6%<br/>value = [0.65, 0.35]>, fillcolor="#f3c6a6"] ;
774 -> 776 ;
777 [label=<monthly_charge &le; 97.83<br/>gini = 0.38<br/>samples = 0.6%<br/>value = [0.74, 0.26]>, fillcolor="#eead7e"] ;
776 -> 777 ;
778 [label=<total_long_distance_charges &le; 496.77<br/>gini = 0.48<br/>samples = 0.2%<br/>value = [0.4, 0.6]>, fillcolor="#bddef6"] ;
777 -> 778 ;
779 [label=<tenure_in_months &le; 12.5<br/>gini = 0.48<br/>samples = 0.1%<br/>value = [0.6, 0.4]>, fillcolor="#f6d5bd"] ;
778 -> 779 ;
780 [label=<gini = 0.0<br/>samples = 0.0%<br/>value = [0.0, 1.0]>, fillcolor="#399de5"] ;
779 -> 780 ;
781 [label=<gini = 0.0<br/>samples = 0.1%<br/>value = [1.0, 0.0]>, fillcolor="#e58139"] ;
779 -> 781 ;
782 [label=<age &le; 23.5<br/>gini = 0.32<br/>samples = 0.1%<br/>value = [0.2, 0.8]>, fillcolor="#6ab6ec"] ;
778 -> 782 ;
783 [label=<gini = 0.0<br/>samples = 0.0%<br/>value = [1.0, 0.0]>, fillcolor="#e58139"] ;
782 -> 783 ;
784 [label=<gini = 0.0<br/>samples = 0.1%<br/>value = [0.0, 1.0]>, fillcolor="#399de5"] ;
782 -> 784 ;
785 [label=<total_charges &le; 1842.4<br/>gini = 0.11<br/>samples = 0.3%<br/>value = [0.94, 0.06]>, fillcolor="#e78945"] ;
777 -> 785 ;
786 [label=<premium_support &le; 0.5<br/>gini = 0.44<br/>samples = 0.1%<br/>value = [0.67, 0.33]>, fillcolor="#f2c09c"] ;
785 -> 786 ;
787 [label=<gini = 0.0<br/>samples = 0.1%<br/>value = [1.0, 0.0]>, fillcolor="#e58139"] ;
786 -> 787 ;
788 [label=<gini = 0.0<br/>samples = 0.0%<br/>value = [0.0, 1.0]>, fillcolor="#399de5"] ;
786 -> 788 ;
789 [label=<gini = 0.0<br/>samples = 0.2%<br/>value = [1.0, 0.0]>, fillcolor="#e58139"] ;
785 -> 789 ;
790 [label=<gini = 0.0<br/>samples = 0.1%<br/>value = [0.0, 1.0]>, fillcolor="#399de5"] ;
776 -> 790 ;
791 [label=<gini = 0.0<br/>samples = 0.1%<br/>value = [0.0, 1.0]>, fillcolor="#399de5"] ;
761 -> 791 ;
792 [label=<total_long_distance_charges &le; 135.53<br/>gini = 0.37<br/>samples = 4.5%<br/>value = [0.76, 0.24]>, fillcolor="#edaa79"] ;
760 -> 792 ;
793 [label=<gini = 0.0<br/>samples = 0.5%<br/>value = [1.0, 0.0]>, fillcolor="#e58139"] ;
792 -> 793 ;
794 [label=<total_revenue &le; 1698.99<br/>gini = 0.4<br/>samples = 4.0%<br/>value = [0.72, 0.28]>, fillcolor="#efb184"] ;
792 -> 794 ;
795 [label=<total_charges &le; 1039.35<br/>gini = 0.17<br/>samples = 0.7%<br/>value = [0.9, 0.1]>, fillcolor="#e88e4e"] ;
794 -> 795 ;
796 [label=<tenure_in_months &le; 18.0<br/>gini = 0.3<br/>samples = 0.2%<br/>value = [0.82, 0.18]>, fillcolor="#eb9d65"] ;
795 -> 796 ;
797 [label=<gini = 0.0<br/>samples = 0.1%<br/>value = [1.0, 0.0]>, fillcolor="#e58139"] ;
796 -> 797 ;
798 [label=<state &le; 13.5<br/>gini = 0.5<br/>samples = 0.1%<br/>value = [0.5, 0.5]>, fillcolor="#ffffff"] ;
796 -> 798 ;
799 [label=<gini = 0.0<br/>samples = 0.1%<br/>value = [0.0, 1.0]>, fillcolor="#399de5"] ;
798 -> 799 ;
800 [label=<gini = 0.0<br/>samples = 0.0%<br/>value = [1.0, 0.0]>, fillcolor="#e58139"] ;
798 -> 800 ;
801 [label=<number_of_referrals &le; 10.0<br/>gini = 0.09<br/>samples = 0.5%<br/>value = [0.95, 0.05]>, fillcolor="#e68843"] ;
795 -> 801 ;
802 [label=<gini = 0.0<br/>samples = 0.4%<br/>value = [1.0, 0.0]>, fillcolor="#e58139"] ;
801 -> 802 ;
803 [label=<value_deal &le; 4.0<br/>gini = 0.38<br/>samples = 0.1%<br/>value = [0.75, 0.25]>, fillcolor="#eeab7b"] ;
801 -> 803 ;
804 [label=<gini = 0.0<br/>samples = 0.0%<br/>value = [1.0, 0.0]>, fillcolor="#e58139"] ;
803 -> 804 ;
805 [label=<streaming_tv &le; 0.5<br/>gini = 0.5<br/>samples = 0.1%<br/>value = [0.5, 0.5]>, fillcolor="#ffffff"] ;
803 -> 805 ;
806 [label=<gini = 0.0<br/>samples = 0.0%<br/>value = [0.0, 1.0]>, fillcolor="#399de5"] ;
805 -> 806 ;
807 [label=<gini = 0.0<br/>samples = 0.0%<br/>value = [1.0, 0.0]>, fillcolor="#e58139"] ;
805 -> 807 ;
808 [label=<number_of_referrals &le; 0.5<br/>gini = 0.43<br/>samples = 3.3%<br/>value = [0.68, 0.32]>, fillcolor="#f1bb95"] ;
794 -> 808 ;
809 [label=<online_backup &le; 0.5<br/>gini = 0.28<br/>samples = 0.2%<br/>value = [0.17, 0.83]>, fillcolor="#61b1ea"] ;
808 -> 809 ;
810 [label=<gender &le; 0.5<br/>gini = 0.44<br/>samples = 0.1%<br/>value = [0.33, 0.67]>, fillcolor="#9ccef2"] ;
809 -> 810 ;
811 [label=<gini = 0.0<br/>samples = 0.0%<br/>value = [1.0, 0.0]>, fillcolor="#e58139"] ;
810 -> 811 ;
812 [label=<gini = 0.0<br/>samples = 0.1%<br/>value = [0.0, 1.0]>, fillcolor="#399de5"] ;
810 -> 812 ;
813 [label=<gini = 0.0<br/>samples = 0.1%<br/>value = [0.0, 1.0]>, fillcolor="#399de5"] ;
809 -> 813 ;
814 [label=<streaming_movies &le; 0.5<br/>gini = 0.41<br/>samples = 3.1%<br/>value = [0.71, 0.29]>, fillcolor="#f0b58b"] ;
808 -> 814 ;
815 [label=<tenure_in_months &le; 33.5<br/>gini = 0.5<br/>samples = 0.8%<br/>value = [0.5, 0.5]>, fillcolor="#ffffff"] ;
814 -> 815 ;
816 [label=<age &le; 66.5<br/>gini = 0.49<br/>samples = 0.7%<br/>value = [0.58, 0.42]>, fillcolor="#f8dcc8"] ;
815 -> 816 ;
817 [label=<total_long_distance_charges &le; 442.34<br/>gini = 0.48<br/>samples = 0.5%<br/>value = [0.41, 0.59]>, fillcolor="#c2e1f7"] ;
816 -> 817 ;
818 [label=<gini = 0.0<br/>samples = 0.1%<br/>value = [0.0, 1.0]>, fillcolor="#399de5"] ;
817 -> 818 ;
819 [label=<device_protection_plan &le; 0.5<br/>gini = 0.5<br/>samples = 0.4%<br/>value = [0.5, 0.5]>, fillcolor="#ffffff"] ;
817 -> 819 ;
820 [label=<total_long_distance_charges &le; 2004.91<br/>gini = 0.5<br/>samples = 0.2%<br/>value = [0.54, 0.46]>, fillcolor="#fbede3"] ;
819 -> 820 ;
821 [label=<monthly_charge &le; 85.73<br/>gini = 0.35<br/>samples = 0.2%<br/>value = [0.78, 0.22]>, fillcolor="#eca572"] ;
820 -> 821 ;
822 [label=<total_long_distance_charges &le; 767.96<br/>gini = 0.5<br/>samples = 0.1%<br/>value = [0.5, 0.5]>, fillcolor="#ffffff"] ;
821 -> 822 ;
823 [label=<gini = 0.0<br/>samples = 0.0%<br/>value = [0.0, 1.0]>, fillcolor="#399de5"] ;
822 -> 823 ;
824 [label=<gini = 0.0<br/>samples = 0.1%<br/>value = [1.0, 0.0]>, fillcolor="#e58139"] ;
822 -> 824 ;
825 [label=<gini = 0.0<br/>samples = 0.1%<br/>value = [1.0, 0.0]>, fillcolor="#e58139"] ;
821 -> 825 ;
826 [label=<gini = 0.0<br/>samples = 0.1%<br/>value = [0.0, 1.0]>, fillcolor="#399de5"] ;
820 -> 826 ;
827 [label=<total_revenue &le; 7361.95<br/>gini = 0.48<br/>samples = 0.2%<br/>value = [0.4, 0.6]>, fillcolor="#bddef6"] ;
819 -> 827 ;
828 [label=<state &le; 6.0<br/>gini = 0.38<br/>samples = 0.1%<br/>value = [0.25, 0.75]>, fillcolor="#7bbeee"] ;
